{"learner":{"attributes":{"scikit_learn":"{\"_estimator_type\": \"classifier\"}"},"feature_names":[],"feature_types":[],"gradient_booster":{"model":{"cats":{"enc":[],"feature_segments":[],"sorted_idx":[]},"gbtree_model_param":{"num_parallel_tree":"1","num_trees":"100"},"iteration_indptr":[0,1,2,3,4,5,6,7,8,9,10,11,12,13,14,15,16,17,18,19,20,21,22,23,24,25,26,27,28,29,30,31,32,33,34,35,36,37,38,39,40,41,42,43,44,45,46,47,48,49,50,51,52,53,54,55,56,57,58,59,60,61,62,63,64,65,66,67,68,69,70,71,72,73,74,75,76,77,78,79,80,81,82,83,84,85,86,87,88,89,90,91,92,93,94,95,96,97,98,99,100],"tree_info":[0,0,0,0,0,0,0,0,0,0,0,0,0,0,0,0,0,0,0,0,0,0,0,0,0,0,0,0,0,0,0,0,0,0,0,0,0,0,0,0,0,0,0,0,0,0,0,0,0,0,0,0,0,0,0,0,0,0,0,0,0,0,0,0,0,0,0,0,0,0,0,0,0,0,0,0,0,0,0,0,0,0,0,0,0,0,0,0,0,0,0,0,0,0,0,0,0,0,0,0],"trees":[{"base_weights":[-5.614803E-8,-6.943359E-1,3.086033E-1,-1.3573369E0,-1.8991038E-1,-9.556451E-1,4.5251608E-1,-9.449171E-3,-7.9422124E-2,4.7390778E-2,-5.357196E-1,-6.176265E-2,-9.449171E-3,1.3302499E-1,8.6352956E-1,-4.5032E-2,-2.8967974E-3,-2.1728931E-2,3.955817E-2,-3.168251E-2,5.28131E-2],"categories":[],"categories_nodes":[],"categories_segments":[],"categories_sizes":[],"default_left":[0,0,0,0,0,0,0,0,0,0,0,0,0,0,0,0,0,0,0,0,0],"id":0,"left_children":[1,3,5,7,9,11,13,-1,-1,-1,15,-1,-1,17,19,-1,-1,-1,-1,-1,-1],"loss_changes":[1.1132625E1,5.0886674E0,6.9766073E0,1.5209999E0,4.537208E0,6.2343764E-1,4.2147474E0,0E0,0E0,0E0,1.4286442E0,0E0,0E0,7.7153625E0,4.77777E0,0E0,0E0,0E0,0E0,0E0,0E0],"parents":[2147483647,0,0,1,1,2,2,3,3,4,4,5,5,6,6,10,10,13,13,14,14],"right_children":[2,4,6,8,10,12,14,-1,-1,-1,16,-1,-1,18,20,-1,-1,-1,-1,-1,-1],"split_conditions":[-5.594544E-1,-5.6414403E-2,-4.167156E-1,-6.375017E-1,-3.2687172E-2,3.560323E-2,1.4894622E-2,-9.449171E-3,-7.9422124E-2,4.7390778E-2,1.903695E-1,-6.176265E-2,-9.449171E-3,4.4741157E-1,-1.5523216E0,-4.5032E-2,-2.8967974E-3,-2.1728931E-2,3.955817E-2,-3.168251E-2,5.28131E-2],"split_indices":[0,3,6,7,3,2,2,0,0,0,1,0,0,1,5,0,0,0,0,0,0],"split_type":[0,0,0,0,0,0,0,0,0,0,0,0,0,0,0,0,0,0,0,0,0],"sum_hessian":[4.9955E1,1.4986501E1,3.4968502E1,5.7448254E0,9.241675E0,2.9973001E0,3.19712E1,1.248875E0,4.49595E0,1.748425E0,7.4932504E0,1.748425E0,1.248875E0,1.8733126E1,1.3238075E1,3.7466252E0,3.7466252E0,1.0240775E1,8.492351E0,1.248875E0,1.1989201E1],"tree_param":{"num_deleted":"0","num_feature":"9","num_nodes":"21","size_leaf_vector":"1"}},{"base_weights":[-2.41922E-3,-6.662587E-1,2.9223317E-1,-1.3062496E0,-1.8058752E-1,-9.2693615E-1,4.3094826E-1,-9.188403E-3,-7.6426014E-2,4.585748E-2,-5.150354E-1,-8.612889E-3,-6.0355473E-2,1.0829629E-2,7.121003E-1,-4.331971E-2,-2.7826685E-3,-2.5845353E-2,3.364057E-2,1.5907306E-2,5.979391E-2],"categories":[],"categories_nodes":[],"categories_segments":[],"categories_sizes":[],"default_left":[0,0,0,0,0,0,0,0,0,0,0,0,0,0,0,0,0,0,0,0,0],"id":1,"left_children":[1,3,5,7,9,11,13,-1,-1,-1,15,-1,-1,17,19,-1,-1,-1,-1,-1,-1],"loss_changes":[1.01574545E1,4.7256804E0,6.482817E0,1.3973799E0,4.2303286E0,6.3614154E-1,3.887703E0,0E0,0E0,0E0,1.3214841E0,0E0,0E0,5.3216486E0,3.3820553E0,0E0,0E0,0E0,0E0,0E0,0E0],"parents":[2147483647,0,0,1,1,2,2,3,3,4,4,5,5,6,6,10,10,13,13,14,14],"right_children":[2,4,6,8,10,12,14,-1,-1,-1,16,-1,-1,18,20,-1,-1,-1,-1,-1,-1],"split_conditions":[-5.594544E-1,-5.6414403E-2,-4.167156E-1,-6.375017E-1,-3.2687172E-2,-3.3344376E-1,-1.6698843E-1,-9.188403E-3,-7.6426014E-2,4.585748E-2,1.903695E-1,-8.612889E-3,-6.0355473E-2,1.2187595E-2,4.931925E-1,-4.331971E-2,-2.7826685E-3,-2.5845353E-2,3.364057E-2,1.5907306E-2,5.979391E-2],"split_indices":[0,3,6,7,3,5,1,0,0,0,1,0,0,2,5,0,0,0,0,0,0],"split_type":[0,0,0,0,0,0,0,0,0,0,0,0,0,0,0,0,0,0,0,0,0],"sum_hessian":[4.993383E1,1.4962585E1,3.4971245E1,5.72669E0,9.235895E0,2.9920208E0,3.1979225E1,1.2484931E0,4.478197E0,1.7499304E0,7.485965E0,1.2472466E0,1.7447741E0,1.323741E1,1.8741816E1,3.7396734E0,3.7462916E0,7.4874845E0,5.749925E0,1.1243522E1,7.498294E0],"tree_param":{"num_deleted":"0","num_feature":"9","num_nodes":"21","size_leaf_vector":"1"}},{"base_weights":[-3.7348631E-3,-6.4007396E-1,2.7814874E-1,-1.2595618E0,-1.7178667E-1,-8.9965034E-1,4.1204694E-1,-8.935037E-3,-7.371866E-2,4.440511E-2,-4.953581E-1,-8.375812E-3,-5.8594193E-2,9.5066115E-2,7.633834E-1,1.29431365E-2,-3.307471E-2,-2.024634E-2,3.8201325E-2,7.8811E-3,5.6468762E-2],"categories":[],"categories_nodes":[],"categories_segments":[],"categories_sizes":[],"default_left":[0,0,0,0,0,0,0,0,0,0,0,0,0,0,0,0,0,0,0,0,0],"id":2,"left_children":[1,3,5,7,9,11,13,-1,-1,-1,15,-1,-1,17,19,-1,-1,-1,-1,-1,-1],"loss_changes":[9.303672E0,4.4022665E0,6.040841E0,1.2912254E0,3.9465594E0,5.978129E-1,3.5991669E0,0E0,0E0,0E0,1.2332308E0,0E0,0E0,6.488655E0,3.257329E0,0E0,0E0,0E0,0E0,0E0,0E0],"parents":[2147483647,0,0,1,1,2,2,3,3,4,4,5,5,6,6,10,10,13,13,14,14],"right_children":[2,4,6,8,10,12,14,-1,-1,-1,16,-1,-1,18,20,-1,-1,-1,-1,-1,-1],"split_conditions":[-5.594544E-1,-5.6414403E-2,-4.167156E-1,-6.375017E-1,-3.2687172E-2,-3.3344376E-1,4.4741157E-1,-8.935037E-3,-7.371866E-2,4.440511E-2,-1.322029E0,-8.375812E-3,-5.8594193E-2,1.4894622E-2,-1.3917755E-1,1.29431365E-2,-3.307471E-2,-2.024634E-2,3.8201325E-2,7.8811E-3,5.6468762E-2],"split_indices":[0,3,6,7,3,5,1,0,0,0,7,0,0,2,5,0,0,0,0,0,0],"split_type":[0,0,0,0,0,0,0,0,0,0,0,0,0,0,0,0,0,0,0,0,0],"sum_hessian":[4.9875034E1,1.492096E1,3.4954075E1,5.6960497E0,9.224911E0,2.9843283E0,3.1969746E1,1.2480686E0,4.4479814E0,1.749517E0,7.4753942E0,1.2467388E0,1.7375895E0,1.7474545E1,1.4495202E1,1.2486522E0,6.226742E0,1.0226081E1,7.248463E0,5.998168E0,8.497034E0],"tree_param":{"num_deleted":"0","num_feature":"9","num_nodes":"21","size_leaf_vector":"1"}},{"base_weights":[-4.433326E-3,-6.140248E-1,2.6497737E-1,-1.2166804E0,-1.6108E-1,-8.7384367E-1,3.9432555E-1,-8.688844E-3,-7.125906E-2,4.3026786E-2,-4.7372043E-1,-5.7356108E-2,-7.6033697E-3,6.047183E-3,6.541196E-1,-3.604735E-2,4.254034E-3,-2.3865303E-2,3.060845E-2,-9.822244E-4,4.4191208E-2],"categories":[],"categories_nodes":[],"categories_segments":[],"categories_sizes":[],"default_left":[0,0,0,0,0,0,0,0,0,0,0,0,0,0,0,0,0,0,0,0,0],"id":3,"left_children":[1,3,5,7,9,11,13,-1,-1,-1,15,-1,-1,17,19,-1,-1,-1,-1,-1,-1],"loss_changes":[8.501769E0,4.134485E0,5.6346216E0,1.1993475E0,3.6686192E0,6.0938644E-1,3.3186274E0,0E0,0E0,0E0,1.230416E0,0E0,0E0,4.456316E0,3.070139E0,0E0,0E0,0E0,0E0,0E0,0E0],"parents":[2147483647,0,0,1,1,2,2,3,3,4,4,5,5,6,6,10,10,13,13,14,14],"right_children":[2,4,6,8,10,12,14,-1,-1,-1,16,-1,-1,18,20,-1,-1,-1,-1,-1,-1],"split_conditions":[-5.594544E-1,-5.6414403E-2,-4.167156E-1,-6.375017E-1,-3.2687172E-2,3.560323E-2,-1.6698843E-1,-8.688844E-3,-7.125906E-2,4.3026786E-2,-3.790271E-2,-5.7356108E-2,-7.6033697E-3,1.2187595E-2,-7.446028E-2,-3.604735E-2,4.254034E-3,-2.3865303E-2,3.060845E-2,-9.822244E-4,4.4191208E-2],"split_indices":[0,3,6,7,3,2,1,0,0,0,6,0,0,2,3,0,0,0,0,0,0],"split_type":[0,0,0,0,0,0,0,0,0,0,0,0,0,0,0,0,0,0,0,0,0],"sum_hessian":[4.97766E1,1.486428E1,3.4912323E1,5.654567E0,9.209713E0,2.973853E0,3.1938469E1,1.2476054E0,4.4069614E0,1.7473657E0,7.4623475E0,1.7296644E0,1.2441888E0,1.3213439E1,1.8725029E1,4.972313E0,2.4900346E0,7.4694405E0,5.7439985E0,4.993294E0,1.3731735E1],"tree_param":{"num_deleted":"0","num_feature":"9","num_nodes":"21","size_leaf_vector":"1"}},{"base_weights":[-5.9124045E-3,-5.9030294E-1,2.5165328E-1,-1.1771109E0,-1.5219757E-1,-8.492351E-1,3.7655336E-1,-8.449612E-3,-6.901341E-2,4.1716337E-2,-4.545398E-1,-7.3935427E-3,-5.578695E-2,8.326288E-2,7.018645E-1,-3.9473157E-2,-1.2958529E-3,-1.8956961E-2,3.512744E-2,6.215244E-3,5.272826E-2],"categories":[],"categories_nodes":[],"categories_segments":[],"categories_sizes":[],"default_left":[0,0,0,0,0,0,0,0,0,0,0,0,0,0,0,0,0,0,0,0,0],"id":4,"left_children":[1,3,5,7,9,11,13,-1,-1,-1,15,-1,-1,17,19,-1,-1,-1,-1,-1,-1],"loss_changes":[7.7737827E0,3.8818297E0,5.2510195E0,1.119236E0,3.4193604E0,5.754707E-1,3.0807457E0,0E0,0E0,0E0,1.1924356E0,0E0,0E0,5.5459847E0,3.0191736E0,0E0,0E0,0E0,0E0,0E0,0E0],"parents":[2147483647,0,0,1,1,2,2,3,3,4,4,5,5,6,6,10,10,13,13,14,14],"right_children":[2,4,6,8,10,12,14,-1,-1,-1,16,-1,-1,18,20,-1,-1,-1,-1,-1,-1],"split_conditions":[-5.594544E-1,-5.6414403E-2,-4.167156E-1,-6.375017E-1,-3.2687172E-2,-3.3344376E-1,4.4741157E-1,-8.449612E-3,-6.901341E-2,4.1716337E-2,1.903695E-1,-7.3935427E-3,-5.578695E-2,1.4894622E-2,-1.3917755E-1,-3.9473157E-2,-1.2958529E-3,-1.8956961E-2,3.512744E-2,6.215244E-3,5.272826E-2],"split_indices":[0,3,6,7,3,5,1,0,0,0,1,0,0,2,5,0,0,0,0,0,0],"split_type":[0,0,0,0,0,0,0,0,0,0,0,0,0,0,0,0,0,0,0,0,0],"sum_hessian":[4.965961E1,1.4796344E1,3.4863266E1,5.6037445E0,9.192599E0,2.9614325E0,3.1901834E1,1.2471077E0,4.356637E0,1.7436457E0,7.448953E0,1.2435662E0,1.7178663E0,1.7437063E1,1.446477E1,3.7089448E0,3.7400086E0,1.0205045E1,7.2320194E0,5.9969664E0,8.467804E0],"tree_param":{"num_deleted":"0","num_feature":"9","num_nodes":"21","size_leaf_vector":"1"}},{"base_weights":[-6.945057E-3,-5.6867987E-1,2.3992091E-1,-1.6427556E-1,-1.1759148E0,-8.2587814E-1,3.6069906E-1,-5.292123E-2,1.2320734E-1,-5.6823143E-3,-7.0883326E-2,-5.4697543E-2,-6.667465E-3,1.9952152E-3,6.007885E-1,-2.9632304E-2,2.8909242E-2,-3.503079E-2,1.991689E-2,-2.0125268E-3,4.105828E-2],"categories":[],"categories_nodes":[],"categories_segments":[],"categories_sizes":[],"default_left":[0,0,0,0,0,0,0,0,0,0,0,0,0,0,0,0,0,0,0,0,0],"id":5,"left_children":[1,3,5,7,9,11,13,-1,15,-1,-1,-1,-1,17,19,-1,-1,-1,-1,-1,-1],"loss_changes":[7.1399503E0,3.666058E0,4.9047394E0,2.85403E0,1.410512E0,5.868304E-1,2.8271399E0,0E0,3.2457576E0,0E0,0E0,0E0,0E0,4.225427E0,2.8118615E0,0E0,0E0,0E0,0E0,0E0,0E0],"parents":[2147483647,0,0,1,1,2,2,3,3,4,4,5,5,6,6,8,8,13,13,14,14],"right_children":[2,4,6,8,10,12,14,-1,16,-1,-1,-1,-1,18,20,-1,-1,-1,-1,-1,-1],"split_conditions":[-5.594544E-1,2.4952253E-2,-4.167156E-1,-9.531484E-2,-4.0232822E-2,3.560323E-2,-1.6698843E-1,-5.292123E-2,-2.683283E-1,-5.6823143E-3,-7.0883326E-2,-5.4697543E-2,-6.667465E-3,1.8366309E-1,-7.446028E-2,-2.9632304E-2,2.8909242E-2,-3.503079E-2,1.991689E-2,-2.0125268E-3,4.105828E-2],"split_indices":[0,4,6,3,2,2,1,0,6,0,0,0,0,0,3,0,0,0,0,0,0],"split_type":[0,0,0,0,0,0,0,0,0,0,0,0,0,0,0,0,0,0,0,0,0],"sum_hessian":[4.950371E1,1.4715505E1,3.4788208E1,9.595593E0,5.119911E0,2.9467578E0,3.1841452E1,1.6821036E0,7.9134893E0,1.2217184E0,3.898193E0,1.7065272E0,1.2402306E0,1.317129E1,1.867016E1,2.95755E0,4.9559393E0,4.47341E0,8.69788E0,4.9855137E0,1.3684647E1],"tree_param":{"num_deleted":"0","num_feature":"9","num_nodes":"21","size_leaf_vector":"1"}},{"base_weights":[-9.977963E-3,-5.508995E-1,2.2721668E-1,-1.1149765E0,-1.3589434E-1,-8.035351E-1,3.4379026E-1,-8.017083E-3,-6.554506E-2,4.0189974E-2,-4.2517817E-1,-5.3286303E-2,-6.484918E-3,8.371439E-2,6.799628E-1,-3.7570745E-2,-6.314383E-4,2.7803848E-2,-2.4260817E-2,-3.3016514E-2,4.303437E-2],"categories":[],"categories_nodes":[],"categories_segments":[],"categories_sizes":[],"default_left":[0,0,0,0,0,0,0,0,0,0,0,0,0,0,0,0,0,0,0,0,0],"id":6,"left_children":[1,3,5,7,9,11,13,-1,-1,-1,15,-1,-1,17,19,-1,-1,-1,-1,-1,-1],"loss_changes":[6.5900707E0,3.5124664E0,4.5701985E0,1.0047083E0,3.1025994E0,5.562048E-1,2.811247E0,0E0,0E0,0E0,1.123695E0,0E0,0E0,5.5469313E0,4.0003576E0,0E0,0E0,0E0,0E0,0E0,0E0],"parents":[2147483647,0,0,1,1,2,2,3,3,4,4,5,5,6,6,10,10,13,13,14,14],"right_children":[2,4,6,8,10,12,14,-1,-1,-1,16,-1,-1,18,20,-1,-1,-1,-1,-1,-1],"split_conditions":[-5.594544E-1,-5.6414403E-2,-4.167156E-1,-6.375017E-1,-3.2687172E-2,3.560323E-2,1.4894622E-2,-8.017083E-3,-6.554506E-2,4.0189974E-2,1.903695E-1,-5.3286303E-2,-6.484918E-3,-3.6179904E-2,-1.5523216E0,-3.7570745E-2,-6.314383E-4,2.7803848E-2,-2.4260817E-2,-3.3016514E-2,4.303437E-2],"split_indices":[0,3,6,7,3,2,2,0,0,0,1,0,0,2,5,0,0,0,0,0,0],"split_type":[0,0,0,0,0,0,0,0,0,0,0,0,0,0,0,0,0,0,0,0,0],"sum_hessian":[4.938746E1,1.4651712E1,3.4735744E1,5.4955196E0,9.156193E0,2.9305627E0,3.1805182E1,1.2454586E0,4.250061E0,1.7365838E0,7.419609E0,1.6910093E0,1.2395533E0,1.8636387E1,1.3168795E1,3.6845434E0,3.7350655E0,1.01946945E1,8.441692E0,1.2493732E0,1.1919422E1],"tree_param":{"num_deleted":"0","num_feature":"9","num_nodes":"21","size_leaf_vector":"1"}},{"base_weights":[-1.1896488E-2,-5.313408E-1,2.1503387E-1,-1.4391924E-1,-1.1188731E0,-7.8226084E-1,3.2762262E-1,-5.0288435E-2,1.2857707E-1,-4.8630564E-3,-6.777097E-2,-5.8068368E-3,-5.2316993E-2,5.5533856E-2,6.314991E-1,2.2751307E-2,-3.8803343E-2,-1.8474007E-2,3.1483937E-2,4.352858E-3,4.84637E-2],"categories":[],"categories_nodes":[],"categories_segments":[],"categories_sizes":[],"default_left":[0,0,0,0,0,0,0,0,0,0,0,0,0,0,0,0,0,0,0,0,0],"id":7,"left_children":[1,3,5,7,9,11,13,-1,15,-1,-1,-1,-1,17,19,-1,-1,-1,-1,-1,-1],"loss_changes":[6.0335383E0,3.3798232E0,4.2603025E0,2.6004038E0,1.3263025E0,5.667403E-1,2.672506E0,0E0,2.9758606E0,0E0,0E0,0E0,0E0,4.7161803E0,2.7427797E0,0E0,0E0,0E0,0E0,0E0,0E0],"parents":[2147483647,0,0,1,1,2,2,3,3,4,4,5,5,6,6,8,8,13,13,14,14],"right_children":[2,4,6,8,10,12,14,-1,16,-1,-1,-1,-1,18,20,-1,-1,-1,-1,-1,-1],"split_conditions":[-5.594544E-1,2.4952253E-2,-4.167156E-1,-9.531484E-2,-4.0232822E-2,-3.3344376E-1,4.4741157E-1,-5.0288435E-2,1.0521824E-1,-4.8630564E-3,-6.777097E-2,-5.8068368E-3,-5.2316993E-2,1.4894622E-2,-1.3917755E-1,2.2751307E-2,-3.8803343E-2,-1.8474007E-2,3.1483937E-2,4.352858E-3,4.84637E-2],"split_indices":[0,4,6,3,2,5,1,0,3,0,0,0,0,2,5,0,0,0,0,0,0],"split_type":[0,0,0,0,0,0,0,0,0,0,0,0,0,0,0,0,0,0,0,0,0],"sum_hessian":[4.921546E1,1.4555789E1,3.4659676E1,9.521935E0,5.033853E0,2.9125733E0,3.17471E1,1.6409636E0,7.8809724E0,1.2117289E0,3.8221242E0,1.2356069E0,1.6769664E0,1.7373632E1,1.4373468E1,6.1563926E0,1.7245798E0,1.0188216E1,7.1854157E0,5.984729E0,8.38874E0],"tree_param":{"num_deleted":"0","num_feature":"9","num_nodes":"21","size_leaf_vector":"1"}},{"base_weights":[-1.3995053E-2,-5.1624995E-1,2.0513502E-1,-1.061066E0,-1.2208738E-1,-7.618532E-1,3.1412938E-1,-7.533981E-3,-6.2614694E-2,3.886533E-2,-4.0002808E-1,-5.648169E-3,-5.1038932E-2,5.358285E-2,6.0544294E-1,-3.219029E-2,6.52026E-3,-1.7654497E-2,3.0187944E-2,1.0435836E-2,5.3114153E-2],"categories":[],"categories_nodes":[],"categories_segments":[],"categories_sizes":[],"default_left":[0,0,0,0,0,0,0,0,0,0,0,0,0,0,0,0,0,0,0,0,0],"id":8,"left_children":[1,3,5,7,9,11,13,-1,-1,-1,15,-1,-1,17,19,-1,-1,-1,-1,-1,-1],"loss_changes":[5.612971E0,3.1955566E0,3.986526E0,9.2022467E-1,2.8392487E0,5.3884006E-1,2.4464824E0,0E0,0E0,0E0,1.1684117E0,0E0,0E0,4.3160553E0,2.5553436E0,0E0,0E0,0E0,0E0,0E0,0E0],"parents":[2147483647,0,0,1,1,2,2,3,3,4,4,5,5,6,6,10,10,13,13,14,14],"right_children":[2,4,6,8,10,12,14,-1,-1,-1,16,-1,-1,18,20,-1,-1,-1,-1,-1,-1],"split_conditions":[-5.594544E-1,-5.6414403E-2,-4.167156E-1,-6.375017E-1,-3.2687172E-2,-3.3344376E-1,4.4741157E-1,-7.533981E-3,-6.2614694E-2,3.886533E-2,-3.790271E-2,-5.648169E-3,-5.1038932E-2,1.4894622E-2,4.931925E-1,-3.219029E-2,6.52026E-3,-1.7654497E-2,3.0187944E-2,1.0435836E-2,5.3114153E-2],"split_indices":[0,3,6,7,3,5,1,0,0,0,6,0,0,2,5,0,0,0,0,0,0],"split_type":[0,0,0,0,0,0,0,0,0,0,0,0,0,0,0,0,0,0,0,0,0],"sum_hessian":[4.903736E1,1.4483863E1,3.4553497E1,5.3697634E0,9.1140995E0,2.893427E0,3.1660072E1,1.2424996E0,4.127264E0,1.7274723E0,7.3866267E0,1.2349105E0,1.6585165E0,1.7337555E1,1.4322516E1,4.9143457E0,2.472281E0,1.017485E1,7.162705E0,8.445339E0,5.8771777E0],"tree_param":{"num_deleted":"0","num_feature":"9","num_nodes":"21","size_leaf_vector":"1"}},{"base_weights":[-1.4138025E-2,-4.9762157E-1,1.9607712E-1,-1.24923185E-1,-1.069778E0,-7.4236584E-1,3.016555E-1,-4.7936734E-2,1.3356869E-1,-4.167413E-3,-6.512546E-2,-5.017377E-2,-5.0096745E-3,-2.0694194E-2,5.192397E-1,2.2365509E-2,-3.7102543E-2,-3.4590986E-2,1.799463E-2,-4.204525E-3,3.6541082E-2],"categories":[],"categories_nodes":[],"categories_segments":[],"categories_sizes":[],"default_left":[0,0,0,0,0,0,0,0,0,0,0,0,0,0,0,0,0,0,0,0,0],"id":9,"left_children":[1,3,5,7,9,11,13,-1,15,-1,-1,-1,-1,17,19,-1,-1,-1,-1,-1,-1],"loss_changes":[5.1610656E0,3.1459963E0,3.7353277E0,2.3794136E0,1.2538142E0,5.4885364E-1,2.2949584E0,0E0,2.7635427E0,0E0,0E0,0E0,0E0,3.8467834E0,2.548349E0,0E0,0E0,0E0,0E0,0E0,0E0],"parents":[2147483647,0,0,1,1,2,2,3,3,4,4,5,5,6,6,8,8,13,13,14,14],"right_children":[2,4,6,8,10,12,14,-1,16,-1,-1,-1,-1,18,20,-1,-1,-1,-1,-1,-1],"split_conditions":[-5.594544E-1,2.4952253E-2,-4.167156E-1,-9.531484E-2,-4.0232822E-2,3.560323E-2,-1.6698843E-1,-4.7936734E-2,1.0521824E-1,-4.167413E-3,-6.512546E-2,-5.017377E-2,-5.0096745E-3,1.8366309E-1,-7.446028E-2,2.2365509E-2,-3.7102543E-2,-3.4590986E-2,1.799463E-2,-4.204525E-3,3.6541082E-2],"split_indices":[0,4,6,3,2,2,1,0,3,0,0,0,0,0,3,0,0,0,0,0,0],"split_type":[0,0,0,0,0,0,0,0,0,0,0,0,0,0,0,0,0,0,0,0,0],"sum_hessian":[4.8820095E1,1.4379899E1,3.4440193E1,9.445505E0,4.934394E0,2.8728845E0,3.156731E1,1.594194E0,7.851311E0,1.201209E0,3.7331848E0,1.6424372E0,1.2304474E0,1.3085748E1,1.8481562E1,6.1403313E0,1.7109796E0,4.439455E0,8.646293E0,4.954957E0,1.3526606E1],"tree_param":{"num_deleted":"0","num_feature":"9","num_nodes":"21","size_leaf_vector":"1"}},{"base_weights":[-1.6972719E-2,-4.84114E-1,1.856018E-1,-1.0132264E0,-1.0856316E-1,-7.236245E-1,2.8762072E-1,-7.0928126E-3,-6.005164E-2,3.7609708E-2,-3.7554038E-1,-4.9008097E-2,-4.873023E-3,5.9277486E-2,5.8520377E-1,-3.090421E-2,7.2614574E-3,2.5068838E-2,-2.3559244E-2,-3.3082332E-2,3.795926E-2],"categories":[],"categories_nodes":[],"categories_segments":[],"categories_sizes":[],"default_left":[0,0,0,0,0,0,0,0,0,0,0,0,0,0,0,0,0,0,0,0,0],"id":10,"left_children":[1,3,5,7,9,11,13,-1,-1,-1,15,-1,-1,17,19,-1,-1,-1,-1,-1,-1],"loss_changes":[4.788717E0,2.929565E0,3.4878812E0,8.49164E-1,2.5957994E0,5.2315664E-1,2.174166E0,0E0,0E0,0E0,1.1445001E0,0E0,0E0,4.8106785E0,3.5394816E0,0E0,0E0,0E0,0E0,0E0,0E0],"parents":[2147483647,0,0,1,1,2,2,3,3,4,4,5,5,6,6,10,10,13,13,14,14],"right_children":[2,4,6,8,10,12,14,-1,-1,-1,16,-1,-1,18,20,-1,-1,-1,-1,-1,-1],"split_conditions":[-5.594544E-1,-5.6414403E-2,-4.167156E-1,-6.375017E-1,-3.2687172E-2,3.560323E-2,1.4894622E-2,-7.0928126E-3,-6.005164E-2,3.7609708E-2,-3.790271E-2,-4.9008097E-2,-4.873023E-3,-3.6179904E-2,-1.5523216E0,-3.090421E-2,7.2614574E-3,2.5068838E-2,-2.3559244E-2,-3.3082332E-2,3.795926E-2],"split_indices":[0,3,6,7,3,2,2,0,0,0,6,0,0,2,5,0,0,0,0,0,0],"split_type":[0,0,0,0,0,0,0,0,0,0,0,0,0,0,0,0,0,0,0,0,0],"sum_hessian":[4.865464E1,1.4296588E1,3.435805E1,5.2300344E0,9.066554E0,2.8514996E0,3.1506552E1,1.2386001E0,3.9914343E0,1.7161363E0,7.3504176E0,1.6217362E0,1.2297635E0,1.8505781E1,1.3000771E1,4.887323E0,2.4630947E0,1.0123478E1,8.382303E0,1.2487239E0,1.1752048E1],"tree_param":{"num_deleted":"0","num_feature":"9","num_nodes":"21","size_leaf_vector":"1"}},{"base_weights":[-1.8270249E-2,-4.66957E-1,1.7554069E-1,-1.07660666E-1,-1.0259367E0,-7.0568204E-1,2.7420554E-1,-4.581685E-2,1.3782513E-1,-3.0743913E-3,-6.287583E-2,-4.274534E-3,-4.8228692E-2,3.137006E-2,5.4786223E-1,2.1973334E-2,-3.5521906E-2,-1.7130228E-2,2.7139803E-2,4.503477E-2,2.539953E-3],"categories":[],"categories_nodes":[],"categories_segments":[],"categories_sizes":[],"default_left":[0,0,0,0,0,0,0,0,0,0,0,0,0,0,0,0,0,0,0,0,0],"id":11,"left_children":[1,3,5,7,9,11,13,-1,15,-1,-1,-1,-1,17,19,-1,-1,-1,-1,-1,-1],"loss_changes":[4.3807883E0,2.9393246E0,3.2582552E0,2.1831179E0,1.223517E0,5.32341E-1,2.137237E0,0E0,2.5683231E0,0E0,0E0,0E0,0E0,3.6741796E0,2.616859E0,0E0,0E0,0E0,0E0,0E0,0E0],"parents":[2147483647,0,0,1,1,2,2,3,3,4,4,5,5,6,6,8,8,13,13,14,14],"right_children":[2,4,6,8,10,12,14,-1,16,-1,-1,-1,-1,18,20,-1,-1,-1,-1,-1,-1],"split_conditions":[-5.594544E-1,2.4952253E-2,-4.167156E-1,-9.531484E-2,-1.7932127E0,-3.3344376E-1,4.4741157E-1,-4.581685E-2,1.0521824E-1,-3.0743913E-3,-6.287583E-2,-4.274534E-3,-4.8228692E-2,1.4894622E-2,2.4915312E-3,2.1973334E-2,-3.5521906E-2,-1.7130228E-2,2.7139803E-2,4.503477E-2,2.539953E-3],"split_indices":[0,4,6,3,0,5,1,0,3,0,0,0,0,2,4,0,0,0,0,0,0],"split_type":[0,0,0,0,0,0,0,0,0,0,0,0,0,0,0,0,0,0,0,0,0],"sum_hessian":[4.8434204E1,1.418516E1,3.4249046E1,9.360864E0,4.8242965E0,2.8290586E0,3.1419987E1,1.543508E0,7.817355E0,1.1791339E0,3.6451626E0,1.2249155E0,1.6041431E0,1.7238049E1,1.4181938E1,6.1222215E0,1.6951338E0,1.0147732E1,7.090317E0,7.81941E0,6.3625283E0],"tree_param":{"num_deleted":"0","num_feature":"9","num_nodes":"21","size_leaf_vector":"1"}},{"base_weights":[-1.9912472E-2,-4.547844E-1,1.6748922E-1,-1.0838117E-1,-9.971115E-1,-6.8838817E-1,2.6308006E-1,-4.485854E-2,1.2943505E-1,-2.822012E-3,-6.1386354E-2,-4.7158774E-2,-4.1579725E-3,-3.6032077E-2,4.6639526E-1,-2.5143607E-2,2.61948E-2,1.094316E-2,-4.810594E-2,7.238806E-3,4.4161484E-2],"categories":[],"categories_nodes":[],"categories_segments":[],"categories_sizes":[],"default_left":[0,0,0,0,0,0,0,0,0,0,0,0,0,0,0,0,0,0,0,0,0],"id":12,"left_children":[1,3,5,7,9,11,13,-1,15,-1,-1,-1,-1,17,19,-1,-1,-1,-1,-1,-1],"loss_changes":[4.0878024E0,2.7274728E0,3.0553467E0,2.0543613E0,1.1804876E0,5.0847447E-1,1.9826441E0,0E0,2.4615557E0,0E0,0E0,0E0,0E0,3.5175328E0,2.461688E0,0E0,0E0,0E0,0E0,0E0,0E0],"parents":[2147483647,0,0,1,1,2,2,3,3,4,4,5,5,6,6,8,8,13,13,14,14],"right_children":[2,4,6,8,10,12,14,-1,16,-1,-1,-1,-1,18,20,-1,-1,-1,-1,-1,-1],"split_conditions":[-5.594544E-1,2.4952253E-2,-4.167156E-1,-9.531484E-2,-4.0232822E-2,3.560323E-2,-1.6698843E-1,-4.485854E-2,-2.683283E-1,-2.822012E-3,-6.1386354E-2,-4.7158774E-2,-4.1579725E-3,-4.9644685E-1,4.931925E-1,-2.5143607E-2,2.61948E-2,1.094316E-2,-4.810594E-2,7.238806E-3,4.4161484E-2],"split_indices":[0,4,6,3,2,2,1,0,6,0,0,0,0,1,5,0,0,0,0,0,0],"split_type":[0,0,0,0,0,0,0,0,0,0,0,0,0,0,0,0,0,0,0,0,0],"sum_hessian":[4.8225037E1,1.4093593E1,3.4131447E1,9.332466E0,4.7611265E0,2.8060381E0,3.1325407E1,1.5196261E0,7.81284E0,1.1824993E0,3.5786273E0,1.5817709E0,1.2242672E0,1.3009274E1,1.8316133E1,2.8959305E0,4.9169097E0,1.08002825E1,2.2089913E0,1.109942E1,7.2167144E0],"tree_param":{"num_deleted":"0","num_feature":"9","num_nodes":"21","size_leaf_vector":"1"}},{"base_weights":[-2.2000505E-2,-2.6804215E-1,2.9639587E-1,-6.7748594E-1,1.1451297E-1,7.506372E-1,-1.0434452E-1,-2.4482507E-1,-1.0581574E0,2.879632E-1,-5.1960886E-2,1.1476305E0,-1.3566247E-1,-1.0383025E0,3.151986E-1,-3.497256E-2,2.681467E-2,-6.7447186E-2,-8.530282E-3,2.6383912E-2,-1.1847143E-2,7.2245337E-3,6.645649E-2,-3.795974E-2,2.4159895E-2,-9.25498E-3,-6.6736996E-2,4.7424182E-2,-1.8340424E-2],"categories":[],"categories_nodes":[],"categories_segments":[],"categories_sizes":[],"default_left":[0,0,0,0,0,0,0,0,0,0,0,0,0,0,0,0,0,0,0,0,0,0,0,0,0,0,0,0,0],"id":13,"left_children":[1,3,5,7,9,11,13,15,17,19,-1,21,23,25,27,-1,-1,-1,-1,-1,-1,-1,-1,-1,-1,-1,-1,-1,-1],"loss_changes":[3.9194403E0,4.4908895E0,4.0542884E0,2.0062742E0,3.3853467E0,3.8007894E0,5.218301E0,3.1231887E0,1.5805235E0,1.9104214E0,0E0,1.129878E0,1.9485998E0,7.904272E-1,4.3993235E0,0E0,0E0,0E0,0E0,0E0,0E0,0E0,0E0,0E0,0E0,0E0,0E0,0E0,0E0],"parents":[2147483647,0,0,1,1,2,2,3,3,4,4,5,5,6,6,7,7,8,8,9,9,11,11,12,12,13,13,14,14],"right_children":[2,4,6,8,10,12,14,16,18,20,-1,22,24,26,28,-1,-1,-1,-1,-1,-1,-1,-1,-1,-1,-1,-1,-1,-1],"split_conditions":[4.517767E-1,1.3669084E-2,-1.6818527E-2,-2.6727632E-2,2.2705157E-1,4.748104E-2,-6.600627E-2,-6.05059E-2,1.8161367E-1,8.223007E-1,-5.1960886E-2,-1.322029E0,6.0426112E-2,-1.7638978E-1,1E0,-3.497256E-2,2.681467E-2,-6.7447186E-2,-8.530282E-3,2.6383912E-2,-1.1847143E-2,7.2245337E-3,6.645649E-2,-3.795974E-2,2.4159895E-2,-9.25498E-3,-6.6736996E-2,4.7424182E-2,-1.8340424E-2],"split_indices":[1,0,4,4,1,2,3,4,6,7,0,7,2,6,8,0,0,0,0,0,0,0,0,0,0,0,0,0,0],"split_type":[0,0,0,0,0,0,0,0,0,0,0,0,0,0,0,0,0,0,0,0,0,0,0,0,0,0,0,0,0],"sum_hessian":[4.8017796E1,2.7175785E1,2.084201E1,1.275419E1,1.4421594E1,9.35966E0,1.1482349E1,6.7385163E0,6.0156746E0,1.318916E1,1.2324328E0,6.2605605E0,3.0990999E0,3.1020155E0,8.380334E0,4.325527E0,2.4129891E0,4.139585E0,1.8760893E0,9.050624E0,4.1385365E0,1.2343656E0,5.0261946E0,1.430768E0,1.668332E0,1.2187208E0,1.8832946E0,4.1427836E0,4.2375503E0],"tree_param":{"num_deleted":"0","num_feature":"9","num_nodes":"29","size_leaf_vector":"1"}},{"base_weights":[-2.32159E-2,8.438941E-1,-1.06599055E-1,-6.1397348E-3,6.267931E-2,-3.6811364E-1,2.2058257E-1,1.4697014E-1,-7.630147E-1,6.283306E-1,-1.0304116E-1,-1.4756093E-2,3.7307076E-2,3.6040277E-3,-5.71025E-2,5.258655E-2,-1.248159E-2,-5.0303288E-2,1.5155964E-2],"categories":[],"categories_nodes":[],"categories_segments":[],"categories_sizes":[],"default_left":[0,0,0,0,0,0,0,0,0,0,0,0,0,0,0,0,0,0,0],"id":14,"left_children":[1,3,5,-1,-1,7,9,11,13,15,17,-1,-1,-1,-1,-1,-1,-1,-1],"loss_changes":[3.6208098E0,1.8950329E0,3.9690266E0,0E0,0E0,5.3250766E0,2.8107958E0,3.3883188E0,4.7251663E0,3.73791E0,4.8753295E0,0E0,0E0,0E0,0E0,0E0,0E0,0E0,0E0],"parents":[2147483647,0,0,1,1,2,2,5,5,6,6,7,7,8,8,9,9,10,10],"right_children":[2,4,6,-1,-1,8,10,12,14,16,18,-1,-1,-1,-1,-1,-1,-1,-1],"split_conditions":[-9.265361E-2,-6.031617E-1,4.517767E-1,-6.1397348E-3,6.267931E-2,1.4958242E-1,-1.6818527E-2,1.4894622E-2,-1.3389323E0,4.748104E-2,-6.600627E-2,-1.4756093E-2,3.7307076E-2,3.6040277E-3,-5.71025E-2,5.258655E-2,-1.248159E-2,-5.0303288E-2,1.5155964E-2],"split_indices":[4,5,1,0,0,7,4,2,1,2,3,0,0,0,0,0,0,0,0],"split_type":[0,0,0,0,0,0,0,0,0,0,0,0,0,0,0,0,0,0,0],"sum_hessian":[4.7834522E1,3.3962183E0,4.44383E1,1.2193581E0,2.1768603E0,2.4628092E1,1.9810211E1,1.0960172E1,1.366792E1,8.349171E0,1.14610405E1,6.5987825E0,4.361389E0,4.5197606E0,9.148159E0,5.4992266E0,2.849944E0,3.0974355E0,8.3636055E0],"tree_param":{"num_deleted":"0","num_feature":"9","num_nodes":"19","size_leaf_vector":"1"}},{"base_weights":[-2.1517728E-2,-3.268777E-1,2.1443245E-1,-6.566546E-1,2.278615E-1,-3.9800473E-2,3.3437872E-1,-2.5903293E-1,-1.0169412E0,4.832353E-2,-1.5265019E-1,2.5242181E-2,6.829033E-1,-3.4687884E-2,2.5838125E-2,-6.5286644E-2,-7.641041E-3,2.790518E-2,-4.142415E-2,3.990108E-2,-1.795548E-2,1.1607858E-2,4.5344584E-2],"categories":[],"categories_nodes":[],"categories_segments":[],"categories_sizes":[],"default_left":[0,0,0,0,0,0,0,0,0,0,0,0,0,0,0,0,0,0,0,0,0,0,0],"id":15,"left_children":[1,3,5,7,9,-1,11,13,15,-1,17,19,21,-1,-1,-1,-1,-1,-1,-1,-1,-1,-1],"loss_changes":[3.5754473E0,4.101658E0,3.6656725E0,1.7144256E0,2.6198254E0,0E0,2.760008E0,3.02447E0,1.5227032E0,0E0,3.6659844E0,4.6523824E0,1.0088925E0,0E0,0E0,0E0,0E0,0E0,0E0,0E0,0E0,0E0,0E0],"parents":[2147483647,0,0,1,1,2,2,3,3,4,4,6,6,7,7,8,8,10,10,11,11,12,12],"right_children":[2,4,6,8,10,-1,12,14,16,-1,18,20,22,-1,-1,-1,-1,-1,-1,-1,-1,-1,-1],"split_conditions":[8.3072565E-2,4.6599892E-1,-4.167156E-1,-2.6727632E-2,-6.2735826E-2,-3.9800473E-2,5.4533046E-1,-6.05059E-2,1.8161367E-1,4.832353E-2,-5.9383935E-1,-9.0077585E-1,-3.387637E-2,-3.4687884E-2,2.5838125E-2,-6.5286644E-2,-7.641041E-3,2.790518E-2,-4.142415E-2,3.990108E-2,-1.795548E-2,1.1607858E-2,4.5344584E-2],"split_indices":[0,1,6,4,4,0,5,4,6,0,5,5,3,0,0,0,0,0,0,0,0,0,0],"split_type":[0,0,0,0,0,0,0,0,0,0,0,0,0,0,0,0,0,0,0,0,0,0,0],"sum_hessian":[4.7651867E1,2.0602861E1,2.7049004E1,1.2806211E1,7.7966504E0,2.2721078E0,2.4776896E1,6.904828E0,5.9013834E0,2.1273465E0,5.669304E0,1.3698732E1,1.1078163E1,4.4929214E0,2.4119067E0,4.0401115E0,1.8612717E0,2.8481677E0,2.8211365E0,4.192664E0,9.506068E0,4.353602E0,6.724561E0],"tree_param":{"num_deleted":"0","num_feature":"9","num_nodes":"23","size_leaf_vector":"1"}},{"base_weights":[-2.0731324E-2,8.104493E-1,-1.0075986E-1,-5.9502656E-3,6.0318317E-2,3.031487E-1,-2.8852051E-1,-2.9659018E-1,7.824463E-1,5.3409874E-2,-3.7924832E-1,-3.4163248E-2,2.539879E-2,-2.4847472E-2,5.312047E-2,-3.1521626E-2,6.4083276E-4],"categories":[],"categories_nodes":[],"categories_segments":[],"categories_sizes":[],"default_left":[0,0,0,0,0,0,0,0,0,0,0,0,0,0,0,0,0],"id":16,"left_children":[1,3,5,-1,-1,7,9,11,13,-1,15,-1,-1,-1,-1,-1,-1],"loss_changes":[3.304311E0,1.7500403E0,3.506406E0,0E0,0E0,4.484656E0,4.256427E0,2.61706E0,3.5716372E0,0E0,2.968885E0,0E0,0E0,0E0,0E0,0E0,0E0],"parents":[2147483647,0,0,1,1,2,2,5,5,6,6,7,7,8,8,10,10],"right_children":[2,4,6,-1,-1,8,10,12,14,-1,16,-1,-1,-1,-1,-1,-1],"split_conditions":[-9.265361E-2,-6.031617E-1,-5.0924593E-1,-5.9502656E-3,6.0318317E-2,-1.1540247E-2,-9.160975E-2,1.3643025E-1,-1.497034E0,5.3409874E-2,4.4741157E-1,-3.4163248E-2,2.539879E-2,-2.4847472E-2,5.312047E-2,-3.1521626E-2,6.4083276E-4],"split_indices":[4,5,7,0,0,2,2,6,0,0,1,0,0,0,0,0,0],"split_type":[0,0,0,0,0,0,0,0,0,0,0,0,0,0,0,0,0],"sum_hessian":[4.7447674E1,3.3655796E0,4.4082092E1,1.2143024E0,2.151277E0,1.3794016E1,3.0288076E1,6.2964935E0,7.497522E0,1.2231903E0,2.9064886E1,4.35449E0,1.9420036E0,1.2069341E0,6.290588E0,1.734469E1,1.1720197E1],"tree_param":{"num_deleted":"0","num_feature":"9","num_nodes":"17","size_leaf_vector":"1"}},{"base_weights":[-1.774461E-2,-3.1057128E-1,2.0724905E-1,-6.2299913E-1,2.1149814E-1,-3.843281E-2,3.2206914E-1,-5.5273797E-2,-3.1615275E-1,4.6292637E-2,-1.5352415E-1,2.9313503E-2,6.5314454E-1,5.272041E-2,-3.17305E-2,2.6826981E-2,-4.0489417E-2,3.825857E-2,-1.680618E-2,1.1248932E-2,4.329209E-2],"categories":[],"categories_nodes":[],"categories_segments":[],"categories_sizes":[],"default_left":[0,0,0,0,0,0,0,0,0,0,0,0,0,0,0,0,0,0,0,0,0],"id":17,"left_children":[1,3,5,7,9,-1,11,-1,13,-1,15,17,19,-1,-1,-1,-1,-1,-1,-1,-1],"loss_changes":[3.2469797E0,3.6205602E0,3.3757439E0,1.6690855E0,2.42493E0,0E0,2.4701378E0,0E0,4.9180703E0,0E0,3.4467988E0,4.204031E0,8.9855146E-1,0E0,0E0,0E0,0E0,0E0,0E0,0E0,0E0],"parents":[2147483647,0,0,1,1,2,2,3,3,4,4,6,6,8,8,10,10,11,11,12,12],"right_children":[2,4,6,8,10,-1,12,-1,14,-1,16,18,20,-1,-1,-1,-1,-1,-1,-1,-1],"split_conditions":[8.3072565E-2,4.6599892E-1,-4.167156E-1,-6.565366E-1,-6.2735826E-2,-3.843281E-2,5.4533046E-1,-5.5273797E-2,-4.112849E-1,4.6292637E-2,-5.9383935E-1,-9.0077585E-1,-3.387637E-2,5.272041E-2,-3.17305E-2,2.6826981E-2,-4.0489417E-2,3.825857E-2,-1.680618E-2,1.1248932E-2,4.329209E-2],"split_indices":[0,1,6,5,4,0,5,0,5,0,5,5,3,0,0,0,0,0,0,0,0],"split_type":[0,0,0,0,0,0,0,0,0,0,0,0,0,0,0,0,0,0,0,0,0],"sum_hessian":[4.7306217E1,2.0389353E1,2.6916866E1,1.2634826E1,7.7545266E0,2.234074E0,2.4682793E1,3.8999505E0,8.734876E0,2.1028287E0,5.6516976E0,1.3677187E1,1.1005605E1,1.2111967E0,7.523679E0,2.8438327E0,2.807865E0,4.1754637E0,9.501723E0,4.335618E0,6.6699867E0],"tree_param":{"num_deleted":"0","num_feature":"9","num_nodes":"21","size_leaf_vector":"1"}},{"base_weights":[-1.620947E-2,-4.0769678E-1,1.4242315E-1,2.383498E-1,-9.290967E-1,-3.4438893E-1,3.216302E-1,-3.3270064E-1,7.3903024E-1,-1.2107213E0,2.135717E-2,-6.163091E-1,2.4786785E-1,4.0473953E-1,-3.2282017E-2,9.919601E-3,-3.5202187E-2,5.5394482E-2,-4.743187E-3,-3.3858053E-3,-7.1843386E-2,-4.5077216E-2,1.0817927E-2,4.3906953E-2,-3.2420557E-2,1.0493066E-3,3.585304E-2],"categories":[],"categories_nodes":[],"categories_segments":[],"categories_sizes":[],"default_left":[0,0,0,0,0,0,0,0,0,0,0,0,0,0,0,0,0,0,0,0,0,0,0,0,0,0,0],"id":18,"left_children":[1,3,5,7,9,11,13,15,17,19,-1,21,23,25,-1,-1,-1,-1,-1,-1,-1,-1,-1,-1,-1,-1,-1],"loss_changes":[3.0446477E0,4.9799204E0,3.1610851E0,2.2772717E0,3.5809722E0,1.7456607E0,2.3573606E0,9.302773E-1,1.3650315E0,1.6870413E0,0E0,1.873152E0,2.7303758E0,2.936407E0,0E0,0E0,0E0,0E0,0E0,0E0,0E0,0E0,0E0,0E0,0E0,0E0,0E0],"parents":[2147483647,0,0,1,1,2,2,3,3,4,4,5,5,6,6,7,7,8,8,9,9,11,11,12,12,13,13],"right_children":[2,4,6,8,10,12,14,16,18,20,-1,22,24,26,-1,-1,-1,-1,-1,-1,-1,-1,-1,-1,-1,-1,-1],"split_conditions":[-6.205568E-2,-6.837439E-3,-2.6388347E-1,4.6599892E-1,1.4687958E0,-4.0437346E-3,4.553347E-1,-1.001328E0,-9.515721E-2,-3.7280023E-1,2.135717E-2,1.4647046E0,7.515364E-1,-1.3760793E-1,-3.2282017E-2,9.919601E-3,-3.5202187E-2,5.5394482E-2,-4.743187E-3,-3.3858053E-3,-7.1843386E-2,-4.5077216E-2,1.0817927E-2,4.3906953E-2,-3.2420557E-2,1.0493066E-3,3.585304E-2],"split_indices":[3,4,6,1,5,4,6,1,7,6,0,7,7,1,0,0,0,0,0,0,0,0,0,0,0,0,0],"split_type":[0,0,0,0,0,0,0,0,0,0,0,0,0,0,0,0,0,0,0,0,0,0,0,0,0,0,0],"sum_hessian":[4.7091057E1,1.3126435E1,3.3964622E1,6.1049237E0,7.021511E0,8.890912E0,2.507371E1,3.0087738E0,3.09615E0,5.9030356E0,1.1184753E0,6.065483E0,2.8254294E0,2.3625349E1,1.44836E0,1.4297289E0,1.579045E0,1.9188184E0,1.1773316E0,1.1896513E0,4.713384E0,4.4562507E0,1.6092324E0,1.670769E0,1.1546603E0,1.1079281E1,1.2546068E1],"tree_param":{"num_deleted":"0","num_feature":"9","num_nodes":"27","size_leaf_vector":"1"}},{"base_weights":[-1.6475238E-2,7.75703E-1,-9.27164E-2,-5.575983E-3,5.7741083E-2,-2.527725E-1,3.3033642E-1,-3.501058E-1,4.420211E-2,6.547816E-1,-2.919156E-1,-2.3383893E-2,1.4958026E-2,4.62202E-2,-1.9003412E-2,2.403268E-2,-4.6159122E-2],"categories":[],"categories_nodes":[],"categories_segments":[],"categories_sizes":[],"default_left":[0,0,0,0,0,0,0,0,0,0,0,0,0,0,0,0,0],"id":19,"left_children":[1,3,5,-1,-1,7,9,11,-1,13,15,-1,-1,-1,-1,-1,-1],"loss_changes":[2.963861E0,1.5786815E0,3.1015673E0,0E0,0E0,3.9503388E0,2.7486298E0,2.5082476E0,0E0,2.760616E0,2.898367E0,0E0,0E0,0E0,0E0,0E0,0E0],"parents":[2147483647,0,0,1,1,2,2,5,5,6,6,7,7,9,9,10,10],"right_children":[2,4,6,-1,-1,8,10,12,-1,14,16,-1,-1,-1,-1,-1,-1],"split_conditions":[-9.265361E-2,-6.031617E-1,1.9602062E-1,-5.575983E-3,5.7741083E-2,1.76495E0,3.1144528E-2,6.345955E-2,4.420211E-2,1.768807E0,3.718328E-1,-2.3383893E-2,1.4958026E-2,4.62202E-2,-1.9003412E-2,2.403268E-2,-4.6159122E-2],"split_indices":[4,5,6,0,0,1,4,2,0,5,6,0,0,0,0,0,0],"split_type":[0,0,0,0,0,0,0,0,0,0,0,0,0,0,0,0,0],"sum_hessian":[4.688251E1,3.310515E0,4.3572E1,1.202422E0,2.108093E0,3.190405E1,1.1667946E1,3.0025331E1,1.8787192E0,7.6348314E0,4.0331144E0,2.5658634E1,4.3666983E0,6.141449E0,1.4933823E0,1.9208688E0,2.1122458E0],"tree_param":{"num_deleted":"0","num_feature":"9","num_nodes":"17","size_leaf_vector":"1"}},{"base_weights":[-1.372835E-2,-2.898349E-1,1.9698161E-1,-5.816904E-1,1.9649816E-1,-3.658937E-2,3.0532047E-1,-2.0077959E-1,-9.4029516E-1,4.4218566E-2,-1.529596E-1,1.2178465E-1,7.993656E-1,-3.1148825E-2,2.6223732E-2,-6.0892995E-2,-6.357392E-3,2.0567648E-2,-4.5619454E-2,3.6524814E-2,-4.327494E-3,6.517359E-2,4.8278985E-3],"categories":[],"categories_nodes":[],"categories_segments":[],"categories_sizes":[],"default_left":[0,0,0,0,0,0,0,0,0,0,0,0,0,0,0,0,0,0,0,0,0,0,0],"id":20,"left_children":[1,3,5,7,9,-1,11,13,15,-1,17,19,21,-1,-1,-1,-1,-1,-1,-1,-1,-1,-1],"loss_changes":[2.8347263E0,3.1048868E0,3.0080237E0,1.6443348E0,2.2144635E0,0E0,2.2138276E0,2.7087011E0,1.3440089E0,0E0,3.1987202E0,2.569641E0,2.2565045E0,0E0,0E0,0E0,0E0,0E0,0E0,0E0,0E0,0E0,0E0],"parents":[2147483647,0,0,1,1,2,2,3,3,4,4,6,6,7,7,8,8,10,10,11,11,12,12],"right_children":[2,4,6,8,10,-1,12,14,16,-1,18,20,22,-1,-1,-1,-1,-1,-1,-1,-1,-1,-1],"split_conditions":[8.3072565E-2,4.6599892E-1,-4.167156E-1,-2.6727632E-2,-6.2735826E-2,-3.658937E-2,1.4687958E0,-6.05059E-2,1.8161367E-1,4.4218566E-2,-2.5122643E-1,-9.0077585E-1,1.7281125E0,-3.1148825E-2,2.6223732E-2,-6.0892995E-2,-6.357392E-3,2.0567648E-2,-4.5619454E-2,3.6524814E-2,-4.327494E-3,6.517359E-2,4.8278985E-3],"split_indices":[0,1,6,4,4,0,5,4,6,0,5,5,5,0,0,0,0,0,0,0,0,0,0],"split_type":[0,0,0,0,0,0,0,0,0,0,0,0,0,0,0,0,0,0,0,0,0,0,0],"sum_hessian":[4.6743397E1,2.006952E1,2.6673874E1,1.2420016E1,7.649505E0,2.1852777E0,2.4488596E1,6.779116E0,5.6409E0,2.0613148E0,5.5881906E0,1.8764254E1,5.724342E0,4.373921E0,2.4051952E0,3.834349E0,1.8065513E0,3.4688883E0,2.1193023E0,4.1455193E0,1.4618735E1,2.835701E0,2.8886406E0],"tree_param":{"num_deleted":"0","num_feature":"9","num_nodes":"23","size_leaf_vector":"1"}},{"base_weights":[-1.2876449E-2,-3.907404E-1,1.3960513E-1,1.6695182E-1,-9.2878985E-1,-3.8492045E-1,2.841289E-1,-5.965762E-1,6.287155E-1,-1.2276627E0,3.6441926E-3,-1.4804127E-2,-4.524577E-2,-6.1469823E-2,5.412808E-1,-1.0129743E-3,-4.3580186E-2,-2.2705914E-3,4.7609072E-2,-1.7428182E-2,-6.761934E-2,3.68195E-2,-2.2355853E-2,1.1335674E-2,-4.658924E-2,3.3416055E-2,-2.7785147E-2],"categories":[],"categories_nodes":[],"categories_segments":[],"categories_sizes":[],"default_left":[0,0,0,0,0,0,0,0,0,0,0,0,0,0,0,0,0,0,0,0,0,0,0,0,0,0,0],"id":21,"left_children":[1,3,5,7,9,11,13,15,17,19,-1,21,-1,23,25,-1,-1,-1,-1,-1,-1,-1,-1,-1,-1,-1,-1],"loss_changes":[2.793225E0,4.334799E0,2.732481E0,3.0854473E0,2.2575092E0,1.5069015E0,2.495316E0,5.228714E-1,1.1939845E0,1.4631557E-1,0E0,2.1580422E0,0E0,3.4008417E0,2.5992541E0,0E0,0E0,0E0,0E0,0E0,0E0,0E0,0E0,0E0,0E0,0E0,0E0],"parents":[2147483647,0,0,1,1,2,2,3,3,4,4,5,5,6,6,7,7,8,8,9,9,11,11,13,13,14,14],"right_children":[2,4,6,8,10,12,14,16,18,20,-1,22,-1,24,26,-1,-1,-1,-1,-1,-1,-1,-1,-1,-1,-1,-1],"split_conditions":[-6.205568E-2,1.3676863E-3,-3.04757E-1,-8.14906E-1,9.276445E-2,6.694016E-1,-1.6698843E-1,-9.728937E-1,4.4741157E-1,-2.6021263E-1,3.6441926E-3,-3.1294936E-1,-4.524577E-2,-5.8659106E-1,4.3293807E-1,-1.0129743E-3,-4.3580186E-2,-2.2705914E-3,4.7609072E-2,-1.7428182E-2,-6.761934E-2,3.68195E-2,-2.2355853E-2,1.1335674E-2,-4.658924E-2,3.3416055E-2,-2.7785147E-2],"split_indices":[3,4,6,0,4,5,1,5,1,6,0,7,0,1,6,0,0,0,0,0,0,0,0,0,0,0,0],"split_type":[0,0,0,0,0,0,0,0,0,0,0,0,0,0,0,0,0,0,0,0,0,0,0,0,0,0,0],"sum_hessian":[4.6532185E1,1.2929387E1,3.36028E1,6.687477E0,6.2419095E0,6.8993506E0,2.6703447E1,2.4102192E0,4.277258E0,4.6337194E0,1.6081902E0,4.631361E0,2.2679899E0,1.1717158E1,1.4986289E1,1.1254714E0,1.284748E0,1.6656097E0,2.611648E0,1.0472205E0,3.5864992E0,1.4348204E0,3.1965404E0,9.357994E0,2.3591642E0,1.3781085E1,1.2052048E0],"tree_param":{"num_deleted":"0","num_feature":"9","num_nodes":"27","size_leaf_vector":"1"}},{"base_weights":[-1.5301528E-2,7.4351317E-1,-8.8347286E-2,-5.5231825E-3,5.5613518E-2,2.795664E-1,-2.5974658E-1,-5.752895E-1,5.609476E-1,4.9980566E-2,-3.4539694E-1,-5.6954812E-2,1.3055781E-2,-2.2563683E-2,3.8781013E-2,-4.9917076E-2,-1.0433911E-2],"categories":[],"categories_nodes":[],"categories_segments":[],"categories_sizes":[],"default_left":[0,0,0,0,0,0,0,0,0,0,0,0,0,0,0,0,0],"id":22,"left_children":[1,3,5,-1,-1,7,9,11,13,-1,15,-1,-1,-1,-1,-1,-1],"loss_changes":[2.6875136E0,1.4642994E0,2.849884E0,0E0,0E0,3.8053694E0,3.6419308E0,2.2210615E0,2.8270426E0,0E0,2.4126287E0,0E0,0E0,0E0,0E0,0E0,0E0],"parents":[2147483647,0,0,1,1,2,2,5,5,6,6,7,7,8,8,10,10],"right_children":[2,4,6,-1,-1,8,10,12,14,-1,16,-1,-1,-1,-1,-1,-1],"split_conditions":[-9.265361E-2,-6.031617E-1,-5.0924593E-1,-5.5231825E-3,5.5613518E-2,-6.462257E-2,-9.160975E-2,6.328822E-2,-9.946668E-2,4.9980566E-2,-1.3760219E0,-5.6954812E-2,1.3055781E-2,-2.2563683E-2,3.8781013E-2,-4.9917076E-2,-1.0433911E-2],"split_indices":[4,5,7,0,0,2,2,6,3,0,5,0,0,0,0,0,0],"split_type":[0,0,0,0,0,0,0,0,0,0,0,0,0,0,0,0,0],"sum_hessian":[4.6301304E1,3.2597373E0,4.304157E1,1.1943276E0,2.0654097E0,1.3478495E1,2.9563072E1,3.0791872E0,1.0399308E1,1.2030603E0,2.8360012E1,1.6231521E0,1.456035E0,1.6267467E0,8.772561E0,3.8189967E0,2.4541016E1],"tree_param":{"num_deleted":"0","num_feature":"9","num_nodes":"17","size_leaf_vector":"1"}},{"base_weights":[-1.4317004E-2,-2.8197452E-1,1.8863583E-1,8.657487E-2,-6.4162487E-1,-3.46236E-2,2.8983933E-1,-5.318704E-2,3.9538923E-1,2.8287241E-2,-5.404192E-2,1.14148155E-1,7.63464E-1,3.726706E-2,-7.772028E-3,2.2674724E-2,-3.7980195E-2,3.4903266E-2,-4.266374E-3,6.2936775E-2,4.1295546E-3],"categories":[],"categories_nodes":[],"categories_segments":[],"categories_sizes":[],"default_left":[0,0,0,0,0,0,0,0,0,0,0,0,0,0,0,0,0,0,0,0,0],"id":23,"left_children":[1,3,5,7,9,-1,11,-1,13,15,-1,17,19,-1,-1,-1,-1,-1,-1,-1,-1],"loss_changes":[2.6151407E0,2.8045917E0,2.6460106E0,4.3723226E0,3.1540294E0,0E0,2.018298E0,0E0,1.9469112E0,2.0792763E0,0E0,2.3462243E0,2.1454337E0,0E0,0E0,0E0,0E0,0E0,0E0,0E0,0E0],"parents":[2147483647,0,0,1,1,2,2,3,3,4,4,6,6,8,8,9,9,11,11,12,12],"right_children":[2,4,6,8,10,-1,12,-1,14,16,-1,18,20,-1,-1,-1,-1,-1,-1,-1,-1],"split_conditions":[8.3072565E-2,-2.6727632E-2,-4.167156E-1,-1.3957684E0,-2.5122643E-1,-3.46236E-2,1.4687958E0,-5.318704E-2,4.082123E-2,1E0,-5.404192E-2,-9.0077585E-1,1.7281125E0,3.726706E-2,-7.772028E-3,2.2674724E-2,-3.7980195E-2,3.4903266E-2,-4.266374E-3,6.2936775E-2,4.1295546E-3],"split_indices":[0,4,6,5,5,0,5,0,3,8,0,5,5,0,0,0,0,0,0,0,0],"split_type":[0,0,0,0,0,0,0,0,0,0,0,0,0,0,0,0,0,0,0,0,0],"sum_hessian":[4.6162422E1,1.973984E1,2.6422585E1,1.0124304E1,9.615536E0,2.120295E0,2.430229E1,1.6253548E0,8.498949E0,4.1782455E0,5.43729E0,1.863182E1,5.670469E0,4.9811873E0,3.5177615E0,2.9893694E0,1.1888762E0,4.107779E0,1.4524041E1,2.7913294E0,2.8791397E0],"tree_param":{"num_deleted":"0","num_feature":"9","num_nodes":"21","size_leaf_vector":"1"}},{"base_weights":[-1.4335691E-2,-3.7106183E-1,1.2884645E-1,1.9997954E-1,-8.359773E-1,-2.9834923E-1,2.852337E-1,5.665321E-1,-2.2829143E-2,-1.1055808E0,2.092368E-2,-5.5464035E-1,2.4499184E-1,9.2446977E-1,1.4573269E-1,-3.9485814E-3,4.572567E-2,-1.1095844E-3,-6.659783E-2,-4.5408513E-2,5.4048477E-3,4.1432403E-2,-2.9541483E-2,8.570952E-3,5.626912E-2,5.242247E-2,1.0845008E-3],"categories":[],"categories_nodes":[],"categories_segments":[],"categories_sizes":[],"default_left":[0,0,0,0,0,0,0,0,0,0,0,0,0,0,0,0,0,0,0,0,0,0,0,0,0,0,0],"id":24,"left_children":[1,3,5,7,9,11,13,15,-1,17,-1,19,21,23,25,-1,-1,-1,-1,-1,-1,-1,-1,-1,-1,-1,-1],"loss_changes":[2.4463384E0,3.8063698E0,2.3733778E0,1.9333742E0,3.0833979E0,1.4821051E0,2.146718E0,1.1755353E0,0E0,1.6020555E0,0E0,1.7090328E0,2.3395176E0,4.7218347E-1,2.461793E0,0E0,0E0,0E0,0E0,0E0,0E0,0E0,0E0,0E0,0E0,0E0,0E0],"parents":[2147483647,0,0,1,1,2,2,3,3,4,4,5,5,6,6,7,7,9,9,11,11,12,12,13,13,14,14],"right_children":[2,4,6,8,10,12,14,16,-1,18,-1,20,22,24,26,-1,-1,-1,-1,-1,-1,-1,-1,-1,-1,-1,-1],"split_conditions":[-6.205568E-2,-6.837439E-3,-2.6388347E-1,3.594834E-1,1.4687958E0,-4.0437346E-3,-4.006154E-2,4.517767E-1,-2.2829143E-2,-3.7280023E-1,2.092368E-2,1.1476135E0,7.515364E-1,-1.057233E0,-2.3773596E-1,-3.9485814E-3,4.572567E-2,-1.1095844E-3,-6.659783E-2,-4.5408513E-2,5.4048477E-3,4.1432403E-2,-2.9541483E-2,8.570952E-3,5.626912E-2,5.242247E-2,1.0845008E-3],"split_indices":[3,4,6,7,5,4,3,1,0,6,0,7,7,0,6,0,0,0,0,0,0,0,0,0,0,0,0],"split_type":[0,0,0,0,0,0,0,0,0,0,0,0,0,0,0,0,0,0,0,0,0,0,0,0,0,0,0],"sum_hessian":[4.5959244E1,1.2707658E1,3.3251583E1,5.9586678E0,6.7489896E0,8.667426E0,2.4584158E1,3.9118454E0,2.0468223E0,5.6527815E0,1.0962082E0,5.875288E0,2.792138E0,3.3959427E0,2.1188215E1,1.6409496E0,2.270896E0,1.1667893E0,4.4859924E0,3.5899413E0,2.2853467E0,1.6491295E0,1.1430086E0,1.1055138E0,2.2904289E0,1.659431E0,1.9528786E1],"tree_param":{"num_deleted":"0","num_feature":"9","num_nodes":"27","size_leaf_vector":"1"}},{"base_weights":[-1.2381049E-2,-2.7097094E-1,1.8252853E-1,-5.4072225E-1,1.7621632E-1,-3.3452105E-2,2.7954084E-1,-5.0463628E-2,-2.4899875E-1,4.2144742E-2,-1.593928E-1,1.1162314E-1,7.32979E-1,3.2301333E-2,-3.5209585E-2,1.8874956E-2,-4.3400493E-2,3.356514E-2,-3.96728E-3,6.0788006E-2,3.891265E-3],"categories":[],"categories_nodes":[],"categories_segments":[],"categories_sizes":[],"default_left":[0,0,0,0,0,0,0,0,0,0,0,0,0,0,0,0,0,0,0,0,0],"id":25,"left_children":[1,3,5,7,9,-1,11,-1,13,-1,15,17,19,-1,-1,-1,-1,-1,-1,-1,-1],"loss_changes":[2.4055796E0,2.567442E0,2.4384756E0,1.5295527E0,2.028363E0,0E0,1.8347224E0,0E0,4.2670574E0,0E0,2.7897959E0,2.1426291E0,2.000119E0,0E0,0E0,0E0,0E0,0E0,0E0,0E0,0E0],"parents":[2147483647,0,0,1,1,2,2,3,3,4,4,6,6,8,8,10,10,11,11,12,12],"right_children":[2,4,6,8,10,-1,12,-1,14,-1,16,18,20,-1,-1,-1,-1,-1,-1,-1,-1],"split_conditions":[8.3072565E-2,4.6599892E-1,-4.167156E-1,-6.565366E-1,-6.2735826E-2,-3.3452105E-2,1.4687958E0,-5.0463628E-2,3.2068947E-1,4.2144742E-2,-2.5122643E-1,-9.0077585E-1,1.7281125E0,3.2301333E-2,-3.5209585E-2,1.8874956E-2,-4.3400493E-2,3.356514E-2,-3.96728E-3,6.0788006E-2,3.891265E-3],"split_indices":[0,1,6,5,4,0,5,0,5,0,5,5,5,0,0,0,0,0,0,0,0],"split_type":[0,0,0,0,0,0,0,0,0,0,0,0,0,0,0,0,0,0,0,0,0],"sum_hessian":[4.5746883E1,1.9493835E1,2.6253048E1,1.2028729E1,7.465106E0,2.0818832E0,2.4171164E1,3.671722E0,8.357007E0,1.9935116E0,5.471595E0,1.8548452E1,5.622711E0,2.6760242E0,5.680983E0,3.3788462E0,2.0927486E0,4.078928E0,1.4469524E1,2.744563E0,2.8781483E0],"tree_param":{"num_deleted":"0","num_feature":"9","num_nodes":"21","size_leaf_vector":"1"}},{"base_weights":[-1.1304932E-2,7.0178527E-1,-7.987487E-2,-5.156162E-3,5.2605957E-2,2.6871225E-1,-2.421894E-1,-2.596645E-1,6.924848E-1,4.7764733E-2,-3.2415587E-1,-2.7260825E-2,3.115571E-2,-2.0967467E-2,4.671162E-2,-4.781188E-2,-9.661104E-3],"categories":[],"categories_nodes":[],"categories_segments":[],"categories_sizes":[],"default_left":[0,0,0,0,0,0,0,0,0,0,0,0,0,0,0,0,0],"id":26,"left_children":[1,3,5,-1,-1,7,9,11,13,-1,15,-1,-1,-1,-1,-1,-1],"loss_changes":[2.331058E0,1.2882411E0,2.5174687E0,0E0,0E0,3.369268E0,3.263979E0,2.1211689E0,2.589688E0,0E0,2.2084546E0,0E0,0E0,0E0,0E0,0E0,0E0],"parents":[2147483647,0,0,1,1,2,2,5,5,6,6,7,7,8,8,10,10],"right_children":[2,4,6,-1,-1,8,10,12,14,-1,16,-1,-1,-1,-1,-1,-1],"split_conditions":[-9.265361E-2,-6.031617E-1,-5.0924593E-1,-5.156162E-3,5.2605957E-2,-1.1540247E-2,-9.160975E-2,7.247274E-2,-1.497034E0,4.7764733E-2,-1.3760219E0,-2.7260825E-2,3.115571E-2,-2.0967467E-2,4.671162E-2,-4.781188E-2,-9.661104E-3],"split_indices":[4,5,7,0,0,2,2,4,0,0,5,0,0,0,0,0,0],"split_type":[0,0,0,0,0,0,0,0,0,0,0,0,0,0,0,0,0],"sum_hessian":[4.5526855E1,3.1836836E0,4.2343174E1,1.1794608E0,2.0042229E0,1.3244261E1,2.9098911E1,6.0669703E0,7.17729E0,1.1816062E0,2.7917305E1,4.8730674E0,1.1939031E0,1.150644E0,6.0266457E0,3.708987E0,2.4208319E1],"tree_param":{"num_deleted":"0","num_feature":"9","num_nodes":"17","size_leaf_vector":"1"}},{"base_weights":[-9.295668E-3,-3.5217324E-1,1.275732E-1,1.5577869E-1,-8.433346E-1,-9.469188E-2,4.1822648E-1,-5.663334E-1,5.918379E-1,-5.678103E-2,4.9575716E-3,-7.572741E-1,1.5605867E-1,7.021762E-1,4.9759347E-2,-6.0837885E-4,-4.1564807E-2,7.381362E-5,4.609575E-2,2.367665E-3,-5.7550218E-2,4.655833E-2,-5.9441687E-3,6.0034353E-2,5.93394E-3,2.9056637E-2,-1.623219E-2],"categories":[],"categories_nodes":[],"categories_segments":[],"categories_sizes":[],"default_left":[0,0,0,0,0,0,0,0,0,0,0,0,0,0,0,0,0,0,0,0,0,0,0,0,0,0,0],"id":27,"left_children":[1,3,5,7,9,11,13,15,17,-1,-1,19,21,23,25,-1,-1,-1,-1,-1,-1,-1,-1,-1,-1,-1,-1],"loss_changes":[2.221098E0,3.4982848E0,2.2280564E0,2.6899948E0,2.045611E0,3.44298E0,1.5202439E0,4.7835064E-1,1.0025252E0,0E0,0E0,1.849201E0,3.3812375E0,2.2772236E0,1.6898375E0,0E0,0E0,0E0,0E0,0E0,0E0,0E0,0E0,0E0,0E0,0E0,0E0],"parents":[2147483647,0,0,1,1,2,2,3,3,4,4,5,5,6,6,7,7,8,8,11,11,12,12,13,13,14,14],"right_children":[2,4,6,8,10,12,14,16,18,-1,-1,20,22,24,26,-1,-1,-1,-1,-1,-1,-1,-1,-1,-1,-1,-1],"split_conditions":[-6.205568E-2,1.3676863E-3,4.176695E-1,-8.14906E-1,9.276445E-2,-6.031617E-1,1E0,-9.728937E-1,-6.1626535E-2,-5.678103E-2,4.9575716E-3,9.756108E-2,1.4842616E-1,3.475503E-2,-3.1123254E-2,-6.0837885E-4,-4.1564807E-2,7.381362E-5,4.609575E-2,2.367665E-3,-5.7550218E-2,4.655833E-2,-5.9441687E-3,6.0034353E-2,5.93394E-3,2.9056637E-2,-1.623219E-2],"split_indices":[3,4,1,0,4,5,8,5,4,0,0,7,5,3,4,0,0,0,0,0,0,0,0,0,0,0,0],"split_type":[0,0,0,0,0,0,0,0,0,0,0,0,0,0,0,0,0,0,0,0,0,0,0,0,0,0,0],"sum_hessian":[4.5371273E1,1.2495374E1,3.28759E1,6.4783716E0,6.017002E0,1.90117E1,1.3864202E1,2.3266673E0,4.1517043E0,4.436289E0,1.5807132E0,4.6649704E0,1.4346728E1,7.318624E0,6.5455775E0,1.0909281E0,1.2357392E0,1.8490485E0,2.3026557E0,1.8217572E0,2.8432133E0,3.1315598E0,1.1215169E1,3.376322E0,3.942302E0,2.4773831E0,4.0681944E0],"tree_param":{"num_deleted":"0","num_feature":"9","num_nodes":"27","size_leaf_vector":"1"}},{"base_weights":[-8.5456995E-3,6.945093E-1,-7.603578E-2,-4.1582226E-3,5.1413577E-2,-2.1744518E-1,2.9307052E-1,-3.0130538E-1,3.834881E-2,4.5828578E-1,-2.8985197E-2,-2.045381E-2,1.4557722E-2,-2.147647E-3,4.0117517E-2],"categories":[],"categories_nodes":[],"categories_segments":[],"categories_sizes":[],"default_left":[0,0,0,0,0,0,0,0,0,0,0,0,0,0,0],"id":28,"left_children":[1,3,5,-1,-1,7,9,11,-1,13,-1,-1,-1,-1,-1],"loss_changes":[2.2407188E0,1.1594071E0,2.3067157E0,0E0,0E0,2.8434227E0,2.043489E0,2.0268028E0,0E0,1.9186196E0,0E0,0E0,0E0,0E0,0E0],"parents":[2147483647,0,0,1,1,2,2,5,5,6,6,7,7,9,9],"right_children":[2,4,6,-1,-1,8,10,12,-1,14,-1,-1,-1,-1,-1],"split_conditions":[-9.265361E-2,-6.031617E-1,1.9602062E-1,-4.1582226E-3,5.1413577E-2,1.76495E0,4.553347E-1,6.345955E-2,3.834881E-2,-2.2980453E-2,-2.8985197E-2,-2.045381E-2,1.4557722E-2,-2.147647E-3,4.0117517E-2],"split_indices":[4,5,6,0,0,1,6,2,0,4,0,0,0,0,0],"split_type":[0,0,0,0,0,0,0,0,0,0,0,0,0,0,0],"sum_hessian":[4.511056E1,3.1373844E0,4.1973175E1,1.1676228E0,1.9697616E0,3.0643965E1,1.1329212E1,2.8877863E1,1.7661006E0,9.925277E0,1.403935E0,2.469523E1,4.1826334E0,4.396112E0,5.5291653E0],"tree_param":{"num_deleted":"0","num_feature":"9","num_nodes":"15","size_leaf_vector":"1"}},{"base_weights":[-6.1890134E-3,-2.5244513E-1,1.770244E-1,9.473902E-2,-5.9753513E-1,-3.1667404E-2,2.678636E-1,-4.9883347E-2,3.8811934E-1,3.1483963E-2,-1.004719E0,2.3119483E-2,5.485666E-1,3.8282175E-2,-4.3849107E-3,2.0798448E-2,-3.4932423E-2,-5.4152455E-2,-1.5169248E-2,3.2812547E-2,-1.4353874E-2,3.51231E-2,2.9248362E-3],"categories":[],"categories_nodes":[],"categories_segments":[],"categories_sizes":[],"default_left":[0,0,0,0,0,0,0,0,0,0,0,0,0,0,0,0,0,0,0,0,0,0,0],"id":29,"left_children":[1,3,5,7,9,-1,11,-1,13,15,17,19,21,-1,-1,-1,-1,-1,-1,-1,-1,-1,-1],"loss_changes":[2.1185608E0,2.4553828E0,2.1531386E0,3.8624911E0,2.6384594E0,0E0,1.7001169E0,0E0,1.7319596E0,1.6855654E0,1.250267E-2,3.0091846E0,8.314085E-1,0E0,0E0,0E0,0E0,0E0,0E0,0E0,0E0,0E0,0E0],"parents":[2147483647,0,0,1,1,2,2,3,3,4,4,6,6,8,8,9,9,10,10,11,11,12,12],"right_children":[2,4,6,8,10,-1,12,-1,14,16,18,20,22,-1,-1,-1,-1,-1,-1,-1,-1,-1,-1],"split_conditions":[8.3072565E-2,-2.6727632E-2,-4.167156E-1,-1.3957684E0,-2.5122643E-1,-3.1667404E-2,5.4533046E-1,-4.9883347E-2,3.2068947E-1,1E0,7.904137E-2,-9.0077585E-1,1.7281125E0,3.8282175E-2,-4.3849107E-3,2.0798448E-2,-3.4932423E-2,-5.4152455E-2,-1.5169248E-2,3.2812547E-2,-1.4353874E-2,3.51231E-2,2.9248362E-3],"split_indices":[0,4,6,5,5,0,5,0,5,8,4,5,5,0,0,0,0,0,0,0,0,0,0],"split_type":[0,0,0,0,0,0,0,0,0,0,0,0,0,0,0,0,0,0,0,0,0,0,0],"sum_hessian":[4.49661E1,1.9021513E1,2.5944586E1,9.843622E0,9.177892E0,2.0131533E0,2.3931433E1,1.5757397E0,8.267882E0,3.9690964E0,5.208795E0,1.3362804E1,1.0568628E1,4.270479E0,3.9974034E0,2.8818223E0,1.0872741E0,4.195897E0,1.012898E0,4.0272794E0,9.335525E0,7.7131085E0,2.855519E0],"tree_param":{"num_deleted":"0","num_feature":"9","num_nodes":"23","size_leaf_vector":"1"}},{"base_weights":[-7.5759096E-3,6.6167164E-1,-7.172769E-2,-4.7233184E-3,4.9801182E-2,2.526143E-1,-2.2251163E-1,-5.095674E-1,5.063566E-1,4.574449E-2,-3.0078843E-1,-5.2259076E-2,1.3017242E-2,-2.1387694E-2,3.522418E-2,-2.5930328E-2,1.6031385E-3],"categories":[],"categories_nodes":[],"categories_segments":[],"categories_sizes":[],"default_left":[0,0,0,0,0,0,0,0,0,0,0,0,0,0,0,0,0],"id":30,"left_children":[1,3,5,-1,-1,7,9,11,13,-1,15,-1,-1,-1,-1,-1,-1],"loss_changes":[2.0110586E0,1.1302335E0,2.1414201E0,0E0,0E0,2.9655087E0,2.9139152E0,1.9195589E0,2.3379853E0,0E0,2.0816112E0,0E0,0E0,0E0,0E0,0E0,0E0],"parents":[2147483647,0,0,1,1,2,2,5,5,6,6,7,7,8,8,10,10],"right_children":[2,4,6,-1,-1,8,10,12,14,-1,16,-1,-1,-1,-1,-1,-1],"split_conditions":[-9.265361E-2,-6.031617E-1,-5.0924593E-1,-4.7233184E-3,4.9801182E-2,-6.462257E-2,-9.160975E-2,6.328822E-2,-9.946668E-2,4.574449E-2,4.4741157E-1,-5.2259076E-2,1.3017242E-2,-2.1387694E-2,3.522418E-2,-2.5930328E-2,1.6031385E-3],"split_indices":[4,5,7,0,0,2,2,6,3,0,1,0,0,0,0,0,0],"split_type":[0,0,0,0,0,0,0,0,0,0,0,0,0,0,0,0,0],"sum_hessian":[4.473589E1,3.0984037E0,4.1637486E1,1.1699722E0,1.9284315E0,1.2999573E1,2.8637915E1,2.9950237E0,1.0004549E1,1.155792E0,2.7482122E1,1.5554155E0,1.4396081E0,1.5478597E0,8.45669E0,1.6274199E1,1.1207924E1],"tree_param":{"num_deleted":"0","num_feature":"9","num_nodes":"17","size_leaf_vector":"1"}},{"base_weights":[-6.3132383E-3,-2.4795932E-1,1.7266451E-1,8.778106E-2,-5.834352E-1,-3.0647168E-2,2.5986844E-1,-4.8649892E-2,3.723512E-1,2.3285028E-2,-9.755175E-1,1.0303213E-1,6.842392E-1,3.686018E-2,-4.3548085E-3,1.96027E-2,-3.399715E-2,-5.26433E-2,-1.4571698E-2,4.1829806E-2,-1.8140598E-3,5.8027115E-2,2.6726122E-3],"categories":[],"categories_nodes":[],"categories_segments":[],"categories_sizes":[],"default_left":[0,0,0,0,0,0,0,0,0,0,0,0,0,0,0,0,0,0,0,0,0,0,0],"id":31,"left_children":[1,3,5,7,9,-1,11,-1,13,15,17,19,21,-1,-1,-1,-1,-1,-1,-1,-1,-1,-1],"loss_changes":[2.012944E0,2.2806127E0,1.9925202E0,3.611002E0,2.4090357E0,0E0,1.5793159E0,0E0,1.6078991E0,1.5410582E0,1.6820908E-2,2.0003092E0,1.8943765E0,0E0,0E0,0E0,0E0,0E0,0E0,0E0,0E0,0E0,0E0],"parents":[2147483647,0,0,1,1,2,2,3,3,4,4,6,6,8,8,9,9,10,10,11,11,12,12],"right_children":[2,4,6,8,10,-1,12,-1,14,16,18,20,22,-1,-1,-1,-1,-1,-1,-1,-1,-1,-1],"split_conditions":[8.3072565E-2,-2.6727632E-2,-4.167156E-1,-1.3957684E0,-2.5122643E-1,-3.0647168E-2,1.4687958E0,-4.8649892E-2,3.2068947E-1,1E0,7.904137E-2,-2.983727E-1,1.7281125E0,3.686018E-2,-4.3548085E-3,1.96027E-2,-3.399715E-2,-5.26433E-2,-1.4571698E-2,4.1829806E-2,-1.8140598E-3,5.8027115E-2,2.6726122E-3],"split_indices":[0,4,6,5,5,0,5,0,5,8,4,6,5,0,0,0,0,0,0,0,0,0,0],"split_type":[0,0,0,0,0,0,0,0,0,0,0,0,0,0,0,0,0,0,0,0,0,0,0],"sum_hessian":[4.4552914E1,1.8793512E1,2.5759401E1,9.762076E0,9.031435E0,1.971309E0,2.3788094E1,1.5531788E0,8.208898E0,3.9145513E0,5.1168838E0,1.8276402E1,5.5116916E0,4.2385073E0,3.9703906E0,2.8582134E0,1.0563377E0,4.1127687E0,1.0041151E0,2.1181252E0,1.6158276E1,2.6618865E0,2.849805E0],"tree_param":{"num_deleted":"0","num_feature":"9","num_nodes":"23","size_leaf_vector":"1"}},{"base_weights":[-6.664942E-3,-3.2967794E-1,1.2123651E-1,1.8502563E-1,-7.525319E-1,-9.011038E-2,3.9879414E-1,-2.2005538E-2,5.206433E-1,-1.0141658E0,2.112724E-2,-7.206384E-1,1.4749645E-1,6.655324E-1,4.8993204E-2,-1.7130558E-3,4.0179197E-2,1.5268888E-3,-6.235316E-2,2.78247E-3,-5.532663E-2,4.473091E-2,-5.9530386E-3,5.085635E-2,-2.9040112E-3,-2.550886E-2,3.651559E-2],"categories":[],"categories_nodes":[],"categories_segments":[],"categories_sizes":[],"default_left":[0,0,0,0,0,0,0,0,0,0,0,0,0,0,0,0,0,0,0,0,0,0,0,0,0,0,0],"id":32,"left_children":[1,3,5,7,9,11,13,-1,15,17,-1,19,21,23,25,-1,-1,-1,-1,-1,-1,-1,-1,-1,-1,-1,-1],"loss_changes":[1.9129528E0,2.9965277E0,1.9839057E0,1.6398202E0,2.70498E0,3.0528924E0,1.3239937E0,0E0,7.863405E-1,1.5831485E0,0E0,1.7250521E0,3.1166635E0,2.137577E0,3.1802652E0,0E0,0E0,0E0,0E0,0E0,0E0,0E0,0E0,0E0,0E0,0E0,0E0],"parents":[2147483647,0,0,1,1,2,2,3,3,4,4,5,5,6,6,8,8,9,9,11,11,12,12,13,13,14,14],"right_children":[2,4,6,8,10,12,14,-1,16,18,-1,20,22,24,26,-1,-1,-1,-1,-1,-1,-1,-1,-1,-1,-1,-1],"split_conditions":[-6.205568E-2,-6.837439E-3,4.176695E-1,-8.14906E-1,1.4687958E0,-6.031617E-1,4.3551836E-2,-2.2005538E-2,4.4741157E-1,-3.7280023E-1,2.112724E-2,9.756108E-2,1.4842616E-1,2.4952253E-2,1.27930185E-2,-1.7130558E-3,4.0179197E-2,1.5268888E-3,-6.235316E-2,2.78247E-3,-5.532663E-2,4.473091E-2,-5.9530386E-3,5.085635E-2,-2.9040112E-3,-2.550886E-2,3.651559E-2],"split_indices":[3,4,1,0,5,5,3,0,1,6,0,7,5,4,4,0,0,0,0,0,0,0,0,0,0,0,0],"split_type":[0,0,0,0,0,0,0,0,0,0,0,0,0,0,0,0,0,0,0,0,0,0,0,0,0,0,0],"sum_hessian":[4.4335518E1,1.2128245E1,3.2207275E1,5.7237077E0,6.4045377E0,1.8667902E1,1.35393715E1,1.8906859E0,3.8330216E0,5.3502316E0,1.0543063E0,4.552967E0,1.4114935E1,7.169622E0,6.3697495E0,1.5912216E0,2.2417998E0,1.1336987E0,4.2165327E0,1.7959394E0,2.7570276E0,3.0920806E0,1.1022854E1,4.5521593E0,2.6174629E0,3.6364453E0,2.7333045E0],"tree_param":{"num_deleted":"0","num_feature":"9","num_nodes":"27","size_leaf_vector":"1"}},{"base_weights":[-5.9146965E-3,6.4042926E-1,-6.783056E-2,-3.9365334E-3,4.7993343E-2,-2.0049685E-1,2.760692E-1,-2.777338E-1,3.5532754E-2,4.2870304E-1,-2.6775468E-2,-1.7684648E-2,2.2513615E-2,-3.1355831E-3,3.860203E-2],"categories":[],"categories_nodes":[],"categories_segments":[],"categories_sizes":[],"default_left":[0,0,0,0,0,0,0,0,0,0,0,0,0,0,0],"id":33,"left_children":[1,3,5,-1,-1,7,9,11,-1,13,-1,-1,-1,-1,-1],"loss_changes":[1.8467067E0,1.0025021E0,1.972713E0,0E0,0E0,2.3723454E0,1.7308975E0,1.7745094E0,0E0,1.8632765E0,0E0,0E0,0E0,0E0,0E0],"parents":[2147483647,0,0,1,1,2,2,5,5,6,6,7,7,9,9],"right_children":[2,4,6,-1,-1,8,10,12,-1,14,-1,-1,-1,-1,-1],"split_conditions":[-9.265361E-2,-6.031617E-1,1.9602062E-1,-3.9365334E-3,4.7993343E-2,1.76495E0,4.553347E-1,1.3243945E-1,3.5532754E-2,-2.2980453E-2,-2.6775468E-2,-1.7684648E-2,2.2513615E-2,-3.1355831E-3,3.860203E-2],"split_indices":[4,5,6,0,0,1,6,3,0,4,0,0,0,0,0],"split_type":[0,0,0,0,0,0,0,0,0,0,0,0,0,0,0],"sum_hessian":[4.406031E1,3.03493E0,4.102538E1,1.1652038E0,1.8697261E0,2.9905659E1,1.1119722E1,2.820956E1,1.6960971E0,9.756568E0,1.3631548E0,2.6009888E1,2.1996737E0,4.3491015E0,5.4074664E0],"tree_param":{"num_deleted":"0","num_feature":"9","num_nodes":"15","size_leaf_vector":"1"}},{"base_weights":[-3.5349242E-3,-2.3270772E-1,1.6481423E-1,9.179559E-2,-5.6148976E-1,-2.9331718E-2,2.4769574E-1,-4.663632E-2,3.6371565E-1,2.8842337E-2,-4.714517E-2,9.6907504E-2,6.5732086E-1,3.379017E-2,-6.069422E-3,-2.7544139E-2,2.255012E-2,3.1734433E-2,-4.3318174E-3,5.6338083E-2,2.2426678E-3],"categories":[],"categories_nodes":[],"categories_segments":[],"categories_sizes":[],"default_left":[0,0,0,0,0,0,0,0,0,0,0,0,0,0,0,0,0,0,0,0,0],"id":34,"left_children":[1,3,5,7,9,-1,11,-1,13,15,-1,17,19,-1,-1,-1,-1,-1,-1,-1,-1],"loss_changes":[1.7710141E0,2.1249375E0,1.7942612E0,3.3034146E0,2.2323542E0,0E0,1.4526088E0,0E0,1.4639313E0,1.4267066E0,0E0,1.9419185E0,1.7988803E0,0E0,0E0,0E0,0E0,0E0,0E0,0E0,0E0],"parents":[2147483647,0,0,1,1,2,2,3,3,4,4,6,6,8,8,9,9,11,11,12,12],"right_children":[2,4,6,8,10,-1,12,-1,14,16,-1,18,20,-1,-1,-1,-1,-1,-1,-1,-1],"split_conditions":[8.3072565E-2,-2.6727632E-2,-4.167156E-1,-1.3957684E0,-2.5122643E-1,-2.9331718E-2,1.4687958E0,-4.663632E-2,4.082123E-2,-7.665209E-2,-4.714517E-2,-9.0077585E-1,1.7281125E0,3.379017E-2,-6.069422E-3,-2.7544139E-2,2.255012E-2,3.1734433E-2,-4.3318174E-3,5.6338083E-2,2.2426678E-3],"split_indices":[0,4,6,5,5,0,5,0,3,1,0,5,5,0,0,0,0,0,0,0,0],"split_type":[0,0,0,0,0,0,0,0,0,0,0,0,0,0,0,0,0,0,0,0,0],"sum_hessian":[4.3909626E1,1.8433674E1,2.5475954E1,9.639964E0,8.79371E0,1.9269745E0,2.3548979E1,1.5122105E0,8.127753E0,3.814385E0,4.9793253E0,1.8116602E1,5.432377E0,4.706655E0,3.4210982E0,1.4787705E0,2.3356142E0,3.9843984E0,1.4132203E1,2.5999064E0,2.8324707E0],"tree_param":{"num_deleted":"0","num_feature":"9","num_nodes":"21","size_leaf_vector":"1"}},{"base_weights":[-3.722871E-3,-3.1388676E-1,1.18374676E-1,1.7443147E-1,-7.181716E-1,-8.385296E-2,3.8400996E-1,5.13607E-1,-2.0899057E-2,-9.7553384E-1,2.0765428E-2,-6.9307554E-1,1.4270744E-1,6.525436E-1,3.790306E-2,-3.0615171E-3,4.1355047E-2,2.5743155E-3,-6.0607534E-2,2.487602E-3,-5.3305484E-2,4.3437775E-2,-5.8597336E-3,5.6003835E-2,5.6715063E-3,2.6238158E-2,-1.4858494E-2],"categories":[],"categories_nodes":[],"categories_segments":[],"categories_sizes":[],"default_left":[0,0,0,0,0,0,0,0,0,0,0,0,0,0,0,0,0,0,0,0,0,0,0,0,0,0,0],"id":35,"left_children":[1,3,5,7,9,11,13,15,-1,17,-1,19,21,23,25,-1,-1,-1,-1,-1,-1,-1,-1,-1,-1,-1,-1],"loss_changes":[1.7292536E0,2.6709332E0,1.7934661E0,1.5498579E0,2.5200033E0,2.78156E0,1.3090568E0,8.929907E-1,0E0,1.5707355E0,0E0,1.560283E0,2.9316835E0,1.8942609E0,1.3519582E0,0E0,0E0,0E0,0E0,0E0,0E0,0E0,0E0,0E0,0E0,0E0,0E0],"parents":[2147483647,0,0,1,1,2,2,3,3,4,4,5,5,6,6,7,7,9,9,11,11,12,12,13,13,14,14],"right_children":[2,4,6,8,10,12,14,16,-1,18,-1,20,22,24,26,-1,-1,-1,-1,-1,-1,-1,-1,-1,-1,-1,-1],"split_conditions":[-6.205568E-2,-6.837439E-3,4.176695E-1,3.594834E-1,1.4687958E0,-6.031617E-1,1E0,4.517767E-1,-2.0899057E-2,-3.7280023E-1,2.0765428E-2,9.756108E-2,1.4842616E-1,3.475503E-2,1.1346121E0,-3.0615171E-3,4.1355047E-2,2.5743155E-3,-6.0607534E-2,2.487602E-3,-5.3305484E-2,4.3437775E-2,-5.8597336E-3,5.6003835E-2,5.6715063E-3,2.6238158E-2,-1.4858494E-2],"split_indices":[3,4,1,7,5,5,8,1,0,6,0,7,5,3,1,0,0,0,0,0,0,0,0,0,0,0,0],"split_type":[0,0,0,0,0,0,0,0,0,0,0,0,0,0,0,0,0,0,0,0,0,0,0,0,0,0,0],"sum_hessian":[4.3681442E1,1.18946705E1,3.178677E1,5.644937E0,6.2497334E0,1.8435892E1,1.3350879E1,3.6743033E0,1.9706337E0,5.206841E0,1.0428927E0,4.4393435E0,1.3996549E1,7.019378E0,6.3315005E0,1.5806438E0,2.0936594E0,1.1214902E0,4.0853505E0,1.7737936E0,2.6655498E0,3.0720408E0,1.0924507E1,3.1821284E0,3.83725E0,2.3503423E0,3.981158E0],"tree_param":{"num_deleted":"0","num_feature":"9","num_nodes":"27","size_leaf_vector":"1"}},{"base_weights":[-2.6893546E-3,6.27596E-1,-6.3027464E-2,-3.1973515E-3,4.661009E-2,-4.1657317E-2,-4.142129E-3,-3.789527E-1,1.5983757E-1,-6.730576E-5,-4.337329E-2,-1.5198602E-2,1.38542745E-2],"categories":[],"categories_nodes":[],"categories_segments":[],"categories_sizes":[],"default_left":[0,0,0,0,0,0,0,0,0,0,0,0,0],"id":36,"left_children":[1,3,5,-1,-1,-1,7,9,11,-1,-1,-1,-1],"loss_changes":[1.7282724E0,8.9604926E-1,1.8755186E0,0E0,0E0,0E0,2.4880292E0,2.270914E0,1.6165986E0,0E0,0E0,0E0,0E0],"parents":[2147483647,0,0,1,1,2,2,6,6,7,7,8,8],"right_children":[2,4,6,-1,-1,-1,8,10,12,-1,-1,-1,-1],"split_conditions":[-9.265361E-2,-6.031617E-1,-8.5300654E-2,-3.1973515E-3,4.661009E-2,-4.1657317E-2,-6.205568E-2,3.7652287E-1,-3.04757E-1,-6.730576E-5,-4.337329E-2,-1.5198602E-2,1.38542745E-2],"split_indices":[4,5,4,0,0,0,3,7,6,0,0,0,0],"split_type":[0,0,0,0,0,0,0,0,0,0,0,0,0],"sum_hessian":[4.3404587E1,2.9707835E0,4.0433804E1,1.1500053E0,1.8207781E0,1.938105E0,3.8495697E1,1.1317094E1,2.7178604E1,6.9487023E0,4.368392E0,5.162845E0,2.2015759E1],"tree_param":{"num_deleted":"0","num_feature":"9","num_nodes":"13","size_leaf_vector":"1"}},{"base_weights":[-3.5582276E-3,6.1271393E-1,-6.2195376E-2,-3.112605E-3,4.5674484E-2,-4.0528532E-2,-5.118216E-3,-3.6571008E-1,1.5202118E-1,-2.7351335E-2,2.4876853E-2,3.891902E-2,3.2484687E-3],"categories":[],"categories_nodes":[],"categories_segments":[],"categories_sizes":[],"default_left":[0,0,0,0,0,0,0,0,0,0,0,0,0],"id":37,"left_children":[1,3,5,-1,-1,-1,7,9,11,-1,-1,-1,-1],"loss_changes":[1.6368777E0,8.5593057E-1,1.7602668E0,0E0,0E0,0E0,2.2873206E0,2.1892085E0,1.4836717E0,0E0,0E0,0E0,0E0],"parents":[2147483647,0,0,1,1,2,2,6,6,7,7,8,8],"right_children":[2,4,6,-1,-1,-1,8,10,12,-1,-1,-1,-1],"split_conditions":[-9.265361E-2,-6.031617E-1,-8.5300654E-2,-3.112605E-3,4.5674484E-2,-4.0528532E-2,-6.205568E-2,1.4687958E0,-1.7892647E0,-2.7351335E-2,2.4876853E-2,3.891902E-2,3.2484687E-3],"split_indices":[4,5,4,0,0,0,3,5,1,0,0,0,0],"split_type":[0,0,0,0,0,0,0,0,0,0,0,0,0],"sum_hessian":[4.3242584E1,2.9360166E0,4.030657E1,1.1494907E0,1.786526E0,1.9207726E0,3.8385796E1,1.1247824E1,2.713797E1,9.598143E0,1.6496809E0,2.3423815E0,2.479559E1],"tree_param":{"num_deleted":"0","num_feature":"9","num_nodes":"13","size_leaf_vector":"1"}},{"base_weights":[-2.447129E-3,-1.3810283E-1,2.5810716E-1,-6.2304735E-2,-4.198353E-2,8.1966037E-1,3.0514628E-2,-2.56932E-1,2.716665E-1,4.6038438E-4,5.376172E-2,5.2474767E-1,-5.3025985E-1,2.691183E-2,-1.6874922E-2,3.818694E-2,-6.8290806E-3,2.0927673E-3,5.594898E-2,1.8533748E-2,-4.3419924E-2],"categories":[],"categories_nodes":[],"categories_segments":[],"categories_sizes":[],"default_left":[0,0,0,0,0,0,0,0,0,0,0,0,0,0,0,0,0,0,0,0,0],"id":38,"left_children":[1,3,5,7,-1,9,11,13,15,-1,-1,17,19,-1,-1,-1,-1,-1,-1,-1,-1],"loss_changes":[1.5953405E0,1.5254626E0,1.9504594E0,1.8805126E0,0E0,9.054413E-1,3.6145477E0,1.3421221E0,2.2624335E0,0E0,0E0,1.9334346E0,2.191361E0,0E0,0E0,0E0,0E0,0E0,0E0,0E0,0E0],"parents":[2147483647,0,0,1,1,2,2,3,3,5,5,6,6,7,7,8,8,11,11,12,12],"right_children":[2,4,6,8,-1,10,12,14,16,-1,-1,18,20,-1,-1,-1,-1,-1,-1,-1,-1],"split_conditions":[7.88063E-1,6.6368943E-1,-9.3400645E-1,6.723406E-1,-4.198353E-2,-1.678536E-1,1E0,-9.3026966E-2,-1.6818527E-2,4.6038438E-4,5.376172E-2,1.4894622E-2,-5.8596257E-2,2.691183E-2,-1.6874922E-2,3.818694E-2,-6.8290806E-3,2.0927673E-3,5.594898E-2,1.8533748E-2,-4.3419924E-2],"split_indices":[0,0,7,1,0,6,8,2,4,0,0,2,3,0,0,0,0,0,0,0,0],"split_type":[0,0,0,0,0,0,0,0,0,0,0,0,0,0,0,0,0,0,0,0,0],"sum_hessian":[4.3126907E1,2.8670029E1,1.4456878E1,2.685716E1,1.8128672E0,3.4191523E0,1.1037725E1,1.7114233E1,9.742928E0,1.0681047E0,2.3510475E0,5.901097E0,5.136628E0,1.0518738E0,1.606236E1,4.0230575E0,5.7198696E0,3.8460815E0,2.0550153E0,1.3755085E0,3.7611198E0],"tree_param":{"num_deleted":"0","num_feature":"9","num_nodes":"21","size_leaf_vector":"1"}},{"base_weights":[-3.0949363E-4,-2.935532E-1,1.1712606E-1,-7.4845475E-1,-1.7638743E-2,2.9633475E-2,7.1186256E-1,-5.1555024E-3,-4.726615E-2,3.1156857E-2,-2.2689837E-1,-3.3607442E-2,1.0828975E-1,4.927951E-2,4.477005E-3,-2.120964E-2,1.2653569E-2,9.71212E-3,-2.841062E-2],"categories":[],"categories_nodes":[],"categories_segments":[],"categories_sizes":[],"default_left":[0,0,0,0,0,0,0,0,0,0,0,0,0,0,0,0,0,0,0],"id":39,"left_children":[1,3,5,7,9,11,13,-1,-1,-1,15,-1,17,-1,-1,-1,-1,-1,-1],"loss_changes":[1.5481404E0,1.6002666E0,1.6493391E0,5.160601E-1,1.3516392E0,1.6751531E0,6.056583E-1,0E0,0E0,0E0,8.210596E-1,0E0,1.6782622E0,0E0,0E0,0E0,0E0,0E0,0E0],"parents":[2147483647,0,0,1,1,2,2,3,3,4,4,5,5,6,6,10,10,12,12],"right_children":[2,4,6,8,10,12,14,-1,-1,-1,16,-1,18,-1,-1,-1,-1,-1,-1],"split_conditions":[-5.594544E-1,-5.6414403E-2,8.1573226E-2,-1.3001803E0,-3.2687172E-2,-4.167156E-1,3.1545958E-1,-5.1555024E-3,-4.726615E-2,3.1156857E-2,1.0361434E0,-3.3607442E-2,5.9883177E-2,4.927951E-2,4.477005E-3,-2.120964E-2,1.2653569E-2,9.71212E-3,-2.841062E-2],"split_indices":[0,3,2,5,3,6,7,0,0,0,7,0,2,0,0,0,0,0,0],"split_type":[0,0,0,0,0,0,0,0,0,0,0,0,0,0,0,0,0,0,0],"sum_hessian":[4.2956997E1,1.1854898E1,3.1102097E1,3.8291414E0,8.025757E0,2.8028595E1,3.0735028E0,1.2512453E0,2.577896E0,1.4888666E0,6.53689E0,2.0643933E0,2.5964201E1,1.7291914E0,1.3443114E0,4.714979E0,1.8219111E0,2.3669727E1,2.2944732E0],"tree_param":{"num_deleted":"0","num_feature":"9","num_nodes":"19","size_leaf_vector":"1"}},{"base_weights":[-9.7106217E-4,5.967956E-1,-5.7570983E-2,-2.7717457E-3,4.448541E-2,-3.9327856E-2,-2.3554766E-3,-3.5033956E-1,1.4796555E-1,4.788665E-4,-4.1327424E-2,-1.4068243E-2,1.2800926E-2],"categories":[],"categories_nodes":[],"categories_segments":[],"categories_sizes":[],"default_left":[0,0,0,0,0,0,0,0,0,0,0,0,0],"id":40,"left_children":[1,3,5,-1,-1,-1,7,9,11,-1,-1,-1,-1],"loss_changes":[1.5160506E0,7.898054E-1,1.6451373E0,0E0,0E0,0E0,2.093976E0,2.0773158E0,1.3693813E0,0E0,0E0,0E0,0E0],"parents":[2147483647,0,0,1,1,2,2,6,6,7,7,8,8],"right_children":[2,4,6,-1,-1,-1,8,10,12,-1,-1,-1,-1],"split_conditions":[-9.265361E-2,-6.031617E-1,-8.5300654E-2,-2.7717457E-3,4.448541E-2,-3.9327856E-2,-6.205568E-2,3.7652287E-1,-3.04757E-1,4.788665E-4,-4.1327424E-2,-1.4068243E-2,1.2800926E-2],"split_indices":[4,5,4,0,0,0,3,7,6,0,0,0,0],"split_type":[0,0,0,0,0,0,0,0,0,0,0,0,0],"sum_hessian":[4.279359E1,2.8759384E0,3.9917652E1,1.142553E0,1.7333853E0,1.8780013E0,3.803965E1,1.1073819E1,2.696583E1,6.8650947E0,4.2087245E0,5.099574E0,2.1866257E1],"tree_param":{"num_deleted":"0","num_feature":"9","num_nodes":"13","size_leaf_vector":"1"}},{"base_weights":[-1.8567232E-3,1.9093035E-1,-1.694232E-1,4.3605417E-1,-2.5007206E-1,-3.6478135E-1,3.446123E-1,-3.3958387E-2,6.408576E-1,-5.6616557E-1,4.597882E-2,-6.377442E-1,3.3475208E-1,6.9677335E-1,-4.124855E-2,4.019472E-2,-1.3351709E-2,-7.857527E-3,-5.565343E-2,-3.9153818E-2,8.554218E-3,3.4278076E-2,-2.0626329E-2,4.8178695E-2,-8.554691E-3],"categories":[],"categories_nodes":[],"categories_segments":[],"categories_sizes":[],"default_left":[0,0,0,0,0,0,0,0,0,0,0,0,0,0,0,0,0,0,0,0,0,0,0,0,0],"id":41,"left_children":[1,3,5,7,9,11,13,-1,15,17,-1,19,21,23,-1,-1,-1,-1,-1,-1,-1,-1,-1,-1,-1],"loss_changes":[1.4419017E0,2.3531864E0,2.5230927E0,3.5661027E0,3.497655E0,3.6094136E0,3.4944959E0,0E0,2.0050325E0,1.3815193E0,0E0,1.6782184E0,1.7633535E0,1.5519018E0,0E0,0E0,0E0,0E0,0E0,0E0,0E0,0E0,0E0,0E0,0E0],"parents":[2147483647,0,0,1,1,2,2,3,3,4,4,5,5,6,6,8,8,9,9,11,11,12,12,13,13],"right_children":[2,4,6,8,10,12,14,-1,16,18,-1,20,22,24,-1,-1,-1,-1,-1,-1,-1,-1,-1,-1,-1],"split_conditions":[-2.18188E-2,4.082123E-2,1.958128E-1,-1.3957684E0,1.3156581E-1,4.163624E-2,4.553347E-1,-3.3958387E-2,1.7762374E0,3.852519E-2,4.597882E-2,9.276445E-2,9.0908796E-1,1.311476E0,-4.124855E-2,4.019472E-2,-1.3351709E-2,-7.857527E-3,-5.565343E-2,-3.9153818E-2,8.554218E-3,3.4278076E-2,-2.0626329E-2,4.8178695E-2,-8.554691E-3],"split_indices":[4,3,6,5,3,2,6,0,5,2,0,4,7,1,0,0,0,0,0,0,0,0,0,0,0],"split_type":[0,0,0,0,0,0,0,0,0,0,0,0,0,0,0,0,0,0,0,0,0,0,0,0,0],"sum_hessian":[4.2633156E1,1.9759827E1,2.287333E1,1.270769E1,7.052137E0,1.6784697E1,6.088633E0,1.612252E0,1.1095438E1,5.9579687E0,1.0941684E0,1.213706E1,4.6476364E0,4.9903083E0,1.0983249E0,9.503391E0,1.5920465E0,4.145213E0,1.8127553E0,1.0315404E1,1.8216566E0,3.2190466E0,1.4285896E0,3.7325625E0,1.2577456E0],"tree_param":{"num_deleted":"0","num_feature":"9","num_nodes":"25","size_leaf_vector":"1"}},{"base_weights":[-2.7681484E-3,-1.326901E-1,2.452386E-1,-6.736498E-1,-4.1925747E-2,7.9456097E-1,2.416162E-2,-4.865737E-2,-3.2236732E-3,3.1547022E-1,-3.3409902E-1,2.9294347E-4,5.2303564E-2,5.0416595E-1,-5.153449E-1,-3.2710254E-2,2.41504E-2,-2.6441911E-2,2.7770987E-2,2.4529542E-3,5.334884E-2,1.7081158E-2,-4.1669704E-2],"categories":[],"categories_nodes":[],"categories_segments":[],"categories_sizes":[],"default_left":[0,0,0,0,0,0,0,0,0,0,0,0,0,0,0,0,0,0,0,0,0,0,0],"id":42,"left_children":[1,3,5,7,9,11,13,-1,-1,15,17,-1,-1,19,21,-1,-1,-1,-1,-1,-1,-1,-1],"loss_changes":[1.4295086E0,1.4005466E0,1.8334624E0,6.8795216E-1,2.8188004E0,8.560529E-1,3.3438506E0,0E0,0E0,2.2983398E0,2.8544598E0,0E0,0E0,1.6913298E0,1.9477224E0,0E0,0E0,0E0,0E0,0E0,0E0,0E0,0E0],"parents":[2147483647,0,0,1,1,2,2,3,3,4,4,5,5,6,6,9,9,10,10,13,13,14,14],"right_children":[2,4,6,8,10,12,14,-1,-1,16,18,-1,-1,20,22,-1,-1,-1,-1,-1,-1,-1,-1],"split_conditions":[7.88063E-1,-1.3760219E0,-9.3400645E-1,-4.577051E-2,-2.6727632E-2,-1.678536E-1,1E0,-4.865737E-2,-3.2236732E-3,-1.3844163E0,8.885032E-2,2.9294347E-4,5.2303564E-2,1.4894622E-2,-5.8596257E-2,-3.2710254E-2,2.41504E-2,-2.6441911E-2,2.7770987E-2,2.4529542E-3,5.334884E-2,1.7081158E-2,-4.1669704E-2],"split_indices":[0,5,7,4,4,6,8,0,0,7,4,0,0,2,3,0,0,0,0,0,0,0,0],"split_type":[0,0,0,0,0,0,0,0,0,0,0,0,0,0,0,0,0,0,0,0,0,0,0],"sum_hessian":[4.2355118E1,2.809967E1,1.4255448E1,3.1145926E0,2.4985077E1,3.346404E0,1.0909044E1,1.6874754E0,1.4271171E0,1.1202309E1,1.3782768E1,1.0565385E0,2.2898657E0,5.8075314E0,5.101513E0,1.2224116E0,9.979897E0,1.1639954E1,2.1428154E0,3.8121076E0,1.9954239E0,1.360795E0,3.7407176E0],"tree_param":{"num_deleted":"0","num_feature":"9","num_nodes":"23","size_leaf_vector":"1"}},{"base_weights":[-2.04791E-3,-2.1131341E-1,1.4931846E-1,-4.0216614E-3,-6.5998495E-1,-2.6398202E-2,2.2200082E-1,-3.6321368E-2,1.8949477E-1,1.1269001E-2,-4.6119325E-2,6.199606E-1,6.0211595E-2,2.4166992E-2,-1.3337679E-2,4.309122E-2,-1.0775644E-2,-3.78841E-2,1.0700501E-2],"categories":[],"categories_nodes":[],"categories_segments":[],"categories_sizes":[],"default_left":[0,0,0,0,0,0,0,0,0,0,0,0,0,0,0,0,0,0,0],"id":43,"left_children":[1,3,5,7,9,-1,11,-1,13,-1,-1,15,17,-1,-1,-1,-1,-1,-1],"loss_changes":[1.3993059E0,1.7214617E0,1.3794787E0,2.0508811E0,1.5674291E0,0E0,1.4989753E0,0E0,1.6823994E0,0E0,0E0,1.5576301E0,2.4354172E0,0E0,0E0,0E0,0E0,0E0,0E0],"parents":[2147483647,0,0,1,1,2,2,3,3,4,4,6,6,8,8,11,11,12,12],"right_children":[2,4,6,8,10,-1,12,-1,14,-1,-1,16,18,-1,-1,-1,-1,-1,-1],"split_conditions":[8.3072565E-2,3.379765E-2,-4.167156E-1,-9.4029896E-2,-4.0232822E-2,-2.6398202E-2,-1.7632076E-1,-3.6321368E-2,4.5636974E-2,1.1269001E-2,-4.6119325E-2,1.2237016E0,-8.720645E-2,2.4166992E-2,-1.3337679E-2,4.309122E-2,-1.0775644E-2,-3.78841E-2,1.0700501E-2],"split_indices":[0,4,6,3,2,0,6,0,3,0,0,1,6,0,0,0,0,0,0],"split_type":[0,0,0,0,0,0,0,0,0,0,0,0,0,0,0,0,0,0,0],"sum_hessian":[4.2179794E1,1.7537704E1,2.464209E1,1.2685713E1,4.8519917E0,1.7811015E0,2.2860989E1,2.0984132E0,1.05873E1,1.1415141E0,3.7104776E0,5.7891846E0,1.7071804E1,6.403665E0,4.183635E0,4.465045E0,1.3241397E0,2.080631E0,1.4991173E1],"tree_param":{"num_deleted":"0","num_feature":"9","num_nodes":"19","size_leaf_vector":"1"}},{"base_weights":[-3.8890748E-3,-1.2886943E-1,2.3461054E-1,-5.364019E-2,-4.092881E-2,7.714425E-1,2.0647954E-2,-2.4434496E-1,2.7407068E-1,1.5430483E-4,5.0950445E-2,4.8816606E-1,-5.0092846E-1,2.5692983E-2,-1.6087743E-2,3.6347166E-2,-5.185146E-3,2.3747457E-3,5.190518E-2,1.6569199E-2,-4.0526032E-2],"categories":[],"categories_nodes":[],"categories_segments":[],"categories_sizes":[],"default_left":[0,0,0,0,0,0,0,0,0,0,0,0,0,0,0,0,0,0,0,0,0],"id":44,"left_children":[1,3,5,7,-1,9,11,13,15,-1,-1,17,19,-1,-1,-1,-1,-1,-1,-1,-1],"loss_changes":[1.3111391E0,1.4525867E0,1.7219633E0,1.7590805E0,0E0,8.118198E-1,3.1331215E0,1.2009178E0,1.8600168E0,0E0,0E0,1.5872592E0,1.8385688E0,0E0,0E0,0E0,0E0,0E0,0E0,0E0,0E0],"parents":[2147483647,0,0,1,1,2,2,3,3,5,5,6,6,7,7,8,8,11,11,12,12],"right_children":[2,4,6,8,-1,10,12,14,16,-1,-1,18,20,-1,-1,-1,-1,-1,-1,-1,-1],"split_conditions":[7.88063E-1,6.6368943E-1,-9.3400645E-1,6.723406E-1,-4.092881E-2,-1.678536E-1,1E0,-9.3026966E-2,-1.6818527E-2,1.5430483E-4,5.0950445E-2,1.4894622E-2,-5.8596257E-2,2.5692983E-2,-1.6087743E-2,3.6347166E-2,-5.185146E-3,2.3747457E-3,5.190518E-2,1.6569199E-2,-4.0526032E-2],"split_indices":[0,0,7,1,0,6,8,2,4,0,0,2,3,0,0,0,0,0,0,0,0],"split_type":[0,0,0,0,0,0,0,0,0,0,0,0,0,0,0,0,0,0,0,0,0],"sum_hessian":[4.1972187E1,2.784192E1,1.4130265E1,2.6075525E1,1.7663954E0,3.2843451E0,1.0845921E1,1.6644173E1,9.431354E0,1.0470736E0,2.2372715E0,5.753127E0,5.092793E0,1.0195774E0,1.5624595E1,3.8689718E0,5.5623817E0,3.7969515E0,1.9561757E0,1.3616698E0,3.7311232E0],"tree_param":{"num_deleted":"0","num_feature":"9","num_nodes":"21","size_leaf_vector":"1"}},{"base_weights":[-1.7618742E-3,5.6156826E-1,-5.4709673E-2,-2.8099443E-3,4.243375E-2,-3.8632207E-2,2.9269487E-4,-3.408144E-1,1.4645173E-1,-2.5984753E-2,2.457717E-2,3.6275636E-2,3.2399357E-3],"categories":[],"categories_nodes":[],"categories_segments":[],"categories_sizes":[],"default_left":[0,0,0,0,0,0,0,0,0,0,0,0,0],"id":45,"left_children":[1,3,5,-1,-1,-1,7,9,11,-1,-1,-1,-1],"loss_changes":[1.3071196E0,7.1554005E-1,1.5808487E0,0E0,0E0,0E0,1.9533633E0,2.0053358E0,1.2497652E0,0E0,0E0,0E0,0E0],"parents":[2147483647,0,0,1,1,2,2,6,6,7,7,8,8],"right_children":[2,4,6,-1,-1,-1,8,10,12,-1,-1,-1,-1],"split_conditions":[-9.265361E-2,-6.031617E-1,-8.5300654E-2,-2.8099443E-3,4.243375E-2,-3.8632207E-2,-6.205568E-2,1.4687958E0,-1.7892647E0,-2.5984753E-2,2.457717E-2,3.6275636E-2,3.2399357E-3],"split_indices":[4,5,4,0,0,0,3,5,1,0,0,0,0],"split_type":[0,0,0,0,0,0,0,0,0,0,0,0,0],"sum_hessian":[4.1793194E1,2.765371E0,3.9027824E1,1.1326047E0,1.6327665E0,1.8487681E0,3.7179054E1,1.0752645E1,2.642641E1,9.159768E0,1.5928755E0,2.2913644E0,2.4135046E1],"tree_param":{"num_deleted":"0","num_feature":"9","num_nodes":"13","size_leaf_vector":"1"}},{"base_weights":[-7.6502457E-4,-2.6961967E-1,1.0572547E-1,-7.036328E-1,-1.4567083E-2,2.2353565E-2,6.7259866E-1,-3.2997446E-3,-4.534024E-2,2.9002184E-2,-2.0686193E-1,-3.151365E-2,9.421933E-2,4.6937805E-2,3.7631746E-3,-2.0800654E-2,1.0102142E-2,2.4114387E-2,-2.9758825E-3],"categories":[],"categories_nodes":[],"categories_segments":[],"categories_sizes":[],"default_left":[0,0,0,0,0,0,0,0,0,0,0,0,0,0,0,0,0,0,0],"id":46,"left_children":[1,3,5,7,9,11,13,-1,-1,-1,15,-1,17,-1,-1,-1,-1,-1,-1],"loss_changes":[1.2503706E0,1.3612473E0,1.4636457E0,5.315304E-1,1.1290345E0,1.3871742E0,5.616566E-1,0E0,0E0,0E0,7.173924E-1,0E0,1.6020654E0,0E0,0E0,0E0,0E0,0E0,0E0],"parents":[2147483647,0,0,1,1,2,2,3,3,4,4,5,5,6,6,10,10,12,12],"right_children":[2,4,6,8,10,12,14,-1,-1,-1,16,-1,18,-1,-1,-1,-1,-1,-1],"split_conditions":[-5.594544E-1,-5.6414403E-2,8.1573226E-2,-1.3001803E0,-3.2687172E-2,-4.167156E-1,3.1545958E-1,-3.2997446E-3,-4.534024E-2,2.9002184E-2,-3.790271E-2,-3.151365E-2,-1.7632076E-1,4.6937805E-2,3.7631746E-3,-2.0800654E-2,1.0102142E-2,2.4114387E-2,-2.9758825E-3],"split_indices":[0,3,2,5,3,6,7,0,0,0,6,0,6,0,0,0,0,0,0],"split_type":[0,0,0,0,0,0,0,0,0,0,0,0,0,0,0,0,0,0,0],"sum_hessian":[4.1677094E1,1.1389744E1,3.0287352E1,3.5648322E0,7.8249116E0,2.7310186E1,2.9771655E0,1.1815288E0,2.3833034E0,1.4194095E0,6.405502E0,1.9382677E0,2.5371918E1,1.6641077E0,1.3130578E0,4.2263684E0,2.1791334E0,6.592868E0,1.877905E1],"tree_param":{"num_deleted":"0","num_feature":"9","num_nodes":"19","size_leaf_vector":"1"}},{"base_weights":[-5.1747134E-4,5.4584545E-1,-5.1542576E-2,-2.72009E-3,4.142378E-2,-3.787896E-2,2.2933304E-3,-3.222871E-1,1.4025581E-1,-2.4884434E-2,2.4269661E-2,3.4798864E-2,3.1051764E-3],"categories":[],"categories_nodes":[],"categories_segments":[],"categories_sizes":[],"default_left":[0,0,0,0,0,0,0,0,0,0,0,0,0],"id":47,"left_children":[1,3,5,-1,-1,-1,7,9,11,-1,-1,-1,-1],"loss_changes":[1.213126E0,6.7563057E-1,1.5141268E0,0E0,0E0,0E0,1.7453665E0,1.8888463E0,1.1441538E0,0E0,0E0,0E0,0E0],"parents":[2147483647,0,0,1,1,2,2,6,6,7,7,8,8],"right_children":[2,4,6,-1,-1,-1,8,10,12,-1,-1,-1,-1],"split_conditions":[-9.265361E-2,-6.031617E-1,-8.5300654E-2,-2.72009E-3,4.142378E-2,-3.787896E-2,-6.205568E-2,1.4687958E0,-1.7892647E0,-2.4884434E-2,2.4269661E-2,3.4798864E-2,3.1051764E-3],"split_indices":[4,5,4,0,0,0,3,5,1,0,0,0,0],"split_type":[0,0,0,0,0,0,0,0,0,0,0,0,0],"sum_hessian":[4.1505993E1,2.716873E0,3.878912E1,1.1282411E0,1.5886319E0,1.8220216E0,3.69671E1,1.0627658E1,2.6339441E1,9.046797E0,1.5808612E0,2.272791E0,2.406665E1],"tree_param":{"num_deleted":"0","num_feature":"9","num_nodes":"13","size_leaf_vector":"1"}},{"base_weights":[4.0413352E-4,-1.0301327E-1,2.624926E-1,1.7765306E-1,-3.3818355E-1,4.316431E-2,4.1858565E-2,-6.285789E-1,3.6915767E-1,-5.9860617E-1,3.2629752E-1,5.7017004E-1,-4.3827376E-1,-3.5802142E-3,-4.253712E-2,3.5828523E-2,-2.1473167E-2,-3.680613E-2,7.753746E-3,3.259605E-2,-1.9091228E-2,-4.1758115E-3,3.7383985E-2,-4.482958E-2,1.3977076E-2],"categories":[],"categories_nodes":[],"categories_segments":[],"categories_sizes":[],"default_left":[0,0,0,0,0,0,0,0,0,0,0,0,0,0,0,0,0,0,0,0,0,0,0,0,0],"id":48,"left_children":[1,3,5,7,9,-1,11,13,15,17,19,21,23,-1,-1,-1,-1,-1,-1,-1,-1,-1,-1,-1,-1],"loss_changes":[1.1760097E0,2.1137688E0,1.5911016E0,2.5234063E0,3.1844742E0,0E0,2.7939856E0,3.3733916E-1,3.809783E0,1.4369364E0,1.5196365E0,6.669663E-1,2.1652656E0,0E0,0E0,0E0,0E0,0E0,0E0,0E0,0E0,0E0,0E0,0E0,0E0],"parents":[2147483647,0,0,1,1,2,2,3,3,4,4,6,6,7,7,8,8,9,9,10,10,11,11,12,12],"right_children":[2,4,6,8,10,-1,12,14,16,18,20,22,24,-1,-1,-1,-1,-1,-1,-1,-1,-1,-1,-1,-1],"split_conditions":[1.9602062E-1,-2.2779472E-2,-1.0106076E0,-1.3957684E0,4.163624E-2,4.316431E-2,3.0744016E-1,-4.4613678E-2,4.5636974E-2,9.276445E-2,9.0908796E-1,-1.168455E0,4.6572596E-2,-3.5802142E-3,-4.253712E-2,3.5828523E-2,-2.1473167E-2,-3.680613E-2,7.753746E-3,3.259605E-2,-1.9091228E-2,-4.1758115E-3,3.7383985E-2,-4.482958E-2,1.3977076E-2],"split_indices":[6,4,5,5,2,0,6,7,3,4,7,7,3,0,0,0,0,0,0,0,0,0,0,0,0],"split_type":[0,0,0,0,0,0,0,0,0,0,0,0,0,0,0,0,0,0,0,0,0,0,0,0,0],"sum_hessian":[4.1390343E1,3.0114445E1,1.1275897E1,1.3840699E1,1.6273745E1,2.2463264E0,9.029571E0,2.218505E0,1.1622194E1,1.17628145E1,4.5109305E0,4.2098045E0,4.8197665E0,1.0096265E0,1.2088784E0,8.170596E0,3.4515982E0,9.967454E0,1.7953607E0,3.1443815E0,1.3665491E0,1.0121251E0,3.1976795E0,2.789587E0,2.0301793E0],"tree_param":{"num_deleted":"0","num_feature":"9","num_nodes":"25","size_leaf_vector":"1"}},{"base_weights":[3.3958262E-4,1.972226E-1,-1.3833828E-1,-8.76245E-2,5.8841306E-1,4.1634735E-2,-2.17048E-1,6.879931E-1,-4.3103474E-1,-1.0767415E-2,8.17575E-1,-4.2491037E-1,1.436855E-1,5.3497363E-2,-8.666821E-3,1.3264768E-2,-3.4990378E-2,3.177552E-3,5.0630044E-2,-3.1167699E-2,7.134615E-3,2.8489057E-2,-1.5494172E-2],"categories":[],"categories_nodes":[],"categories_segments":[],"categories_sizes":[],"default_left":[0,0,0,0,0,0,0,0,0,0,0,0,0,0,0,0,0,0,0,0,0,0,0],"id":49,"left_children":[1,3,5,7,9,-1,11,13,15,-1,17,19,21,-1,-1,-1,-1,-1,-1,-1,-1,-1,-1],"loss_changes":[1.1776317E0,2.037712E0,2.1150093E0,3.2755847E0,1.5832591E0,0E0,1.8759049E0,1.4413744E0,1.7515692E0,0E0,8.40528E-1,1.8470008E0,2.0310113E0,0E0,0E0,0E0,0E0,0E0,0E0,0E0,0E0,0E0,0E0],"parents":[2147483647,0,0,1,1,2,2,3,3,4,4,6,6,7,7,8,8,10,10,11,11,12,12],"right_children":[2,4,6,8,10,-1,12,14,16,-1,18,20,22,-1,-1,-1,-1,-1,-1,-1,-1,-1,-1],"split_conditions":[-3.7004884E-2,1.4894622E-2,-9.160975E-2,-9.814374E-1,-9.7181094E-1,4.1634735E-2,1.199128E0,-3.6179904E-2,-4.5570973E-2,-1.0767415E-2,-7.0651376E-1,1.4045467E0,-3.1123254E-2,5.3497363E-2,-8.666821E-3,1.3264768E-2,-3.4990378E-2,3.177552E-3,5.0630044E-2,-3.1167699E-2,7.134615E-3,2.8489057E-2,-1.5494172E-2],"split_indices":[7,2,2,5,0,0,7,2,4,0,5,5,4,0,0,0,0,0,0,0,0,0,0],"split_type":[0,0,0,0,0,0,0,0,0,0,0,0,0,0,0,0,0,0,0,0,0,0,0],"sum_hessian":[4.1132183E1,1.6824305E1,2.4307878E1,1.0184454E1,6.639851E0,1.1043481E0,2.320353E1,2.8175018E0,7.366952E0,1.4864751E0,5.1533756E0,1.4608115E1,8.595414E0,1.7841301E0,1.0333717E0,2.0552354E0,5.3117166E0,1.3314565E0,3.8219192E0,1.0751119E1,3.8569975E0,4.299822E0,4.2955923E0],"tree_param":{"num_deleted":"0","num_feature":"9","num_nodes":"23","size_leaf_vector":"1"}},{"base_weights":[2.6642585E-3,-1.9421144E-1,1.4297375E-1,1.11352216E-4,-6.206817E-1,-2.45577E-2,2.0947488E-1,-3.5823517E-2,1.7676765E-1,1.1206185E-2,-8.7895876E-1,5.8358777E-1,5.7771806E-2,2.916396E-2,-1.3841393E-2,-1.3088698E-2,-4.9128927E-2,-1.203373E-2,4.1433737E-2,-3.6404468E-2,1.0300251E-2],"categories":[],"categories_nodes":[],"categories_segments":[],"categories_sizes":[],"default_left":[0,0,0,0,0,0,0,0,0,0,0,0,0,0,0,0,0,0,0,0,0],"id":50,"left_children":[1,3,5,7,9,-1,11,-1,13,-1,15,17,19,-1,-1,-1,-1,-1,-1,-1,-1],"loss_changes":[1.1851755E0,1.4801114E0,1.158834E0,1.8063109E0,1.4168131E0,0E0,1.2923143E0,0E0,2.27213E0,0E0,2.9596806E-2,1.5390112E0,2.215774E0,0E0,0E0,0E0,0E0,0E0,0E0,0E0,0E0],"parents":[2147483647,0,0,1,1,2,2,3,3,4,4,6,6,8,8,10,10,11,11,12,12],"right_children":[2,4,6,8,10,-1,12,-1,14,-1,16,18,20,-1,-1,-1,-1,-1,-1,-1,-1],"split_conditions":[8.3072565E-2,3.379765E-2,-4.167156E-1,-1.3957684E0,-4.0232822E-2,-2.45577E-2,-1.7632076E-1,-3.5823517E-2,3.2068947E-1,1.1206185E-2,-8.0415875E-2,-8.261594E-2,-8.720645E-2,2.916396E-2,-1.3841393E-2,-1.3088698E-2,-4.9128927E-2,-1.203373E-2,4.1433737E-2,-3.6404468E-2,1.0300251E-2],"split_indices":[0,4,6,5,2,0,6,0,5,0,3,4,6,0,0,0,0,0,0,0,0],"split_type":[0,0,0,0,0,0,0,0,0,0,0,0,0,0,0,0,0,0,0,0,0],"sum_hessian":[4.0899364E1,1.6859184E1,2.404018E1,1.22686615E1,4.590523E0,1.675703E0,2.2364477E1,1.8220477E0,1.0446613E1,1.1057922E0,3.4847307E0,5.6310105E0,1.6733467E1,5.3584647E0,5.088149E0,1.0078747E0,2.476856E0,1.2947123E0,4.336298E0,2.034697E0,1.469877E1],"tree_param":{"num_deleted":"0","num_feature":"9","num_nodes":"21","size_leaf_vector":"1"}},{"base_weights":[2.9359444E-4,-1.4538728E-1,1.8844302E-1,1.7581736E-1,-3.782E-1,4.2488644E-1,-1.504391E-1,-1.6923334E-1,6.3932246E-1,1.5271528E-1,-7.5527686E-1,-5.7450347E-2,5.798467E-1,-5.3540325E-1,4.263795E-1,-2.15558E-2,2.9110214E-2,4.4228774E-2,8.749008E-3,-1.3158393E-2,4.7633782E-2,1.1475651E-2,-4.686165E-2,2.7948458E-2,-3.1651955E-2,4.6520676E-2,1.0835814E-2,-4.165934E-2,1.204058E-2,4.1052353E-2,-7.947238E-3],"categories":[],"categories_nodes":[],"categories_segments":[],"categories_sizes":[],"default_left":[0,0,0,0,0,0,0,0,0,0,0,0,0,0,0,0,0,0,0,0,0,0,0,0,0,0,0,0,0,0,0],"id":51,"left_children":[1,3,5,7,9,11,13,15,17,19,21,23,25,27,29,-1,-1,-1,-1,-1,-1,-1,-1,-1,-1,-1,-1,-1,-1,-1,-1],"loss_changes":[1.170326E0,1.866142E0,1.5568452E0,1.8347816E0,2.9721425E0,8.731475E-1,2.0926142E0,1.6244514E0,3.9371097E-1,2.4990194E0,1.7403717E0,1.6460407E0,8.924334E-1,1.4669914E0,1.035407E0,0E0,0E0,0E0,0E0,0E0,0E0,0E0,0E0,0E0,0E0,0E0,0E0,0E0,0E0,0E0,0E0],"parents":[2147483647,0,0,1,1,2,2,3,3,4,4,5,5,6,6,7,7,8,8,9,9,10,10,11,11,12,12,13,13,14,14],"right_children":[2,4,6,8,10,12,14,16,18,20,22,24,26,28,30,-1,-1,-1,-1,-1,-1,-1,-1,-1,-1,-1,-1,-1,-1,-1,-1],"split_conditions":[4.517767E-1,1.4958242E-1,1.2237016E0,1.4894622E-2,-1.0498267E0,-7.446028E-2,1.7309229E0,2.9374385E-1,4.4399753E-2,1.2037972E0,-8.984629E-2,-1.11441895E-1,3.4023415E-2,9.5142305E-1,-1.6818527E-2,-2.15558E-2,2.9110214E-2,4.4228774E-2,8.749008E-3,-1.3158393E-2,4.7633782E-2,1.1475651E-2,-4.686165E-2,2.7948458E-2,-3.1651955E-2,4.6520676E-2,1.0835814E-2,-4.165934E-2,1.204058E-2,4.1052353E-2,-7.947238E-3],"split_indices":[1,7,1,2,1,3,1,6,2,7,4,6,3,7,4,0,0,0,0,0,0,0,0,0,0,0,0,0,0,0,0],"split_type":[0,0,0,0,0,0,0,0,0,0,0,0,0,0,0,0,0,0,0,0,0,0,0,0,0,0,0,0,0,0,0],"sum_hessian":[4.0697853E1,2.3065731E1,1.7632122E1,9.795705E0,1.3270025E1,1.0236303E1,7.3958187E0,5.979341E0,3.8163636E0,5.757959E0,7.512067E0,2.6419861E0,7.5943174E0,4.4786215E0,2.917197E0,4.75015E0,1.2291908E0,1.9051222E0,1.9112414E0,4.2299285E0,1.52803E0,1.1307601E0,6.381307E0,1.2896867E0,1.3522996E0,3.0691504E0,4.5251665E0,3.1838043E0,1.2948174E0,1.5018322E0,1.4153647E0],"tree_param":{"num_deleted":"0","num_feature":"9","num_nodes":"31","size_leaf_vector":"1"}},{"base_weights":[3.089647E-3,-1.148855E-1,2.2466108E-1,-4.1157823E-2,-3.911928E-2,7.4642944E-1,1.770606E-2,-2.2259589E-1,2.6946712E-1,5.608724E-3,4.7983035E-2,4.6805945E-1,-4.7699794E-1,-1.8977044E-2,6.513353E-3,3.4576297E-2,-4.227316E-3,2.4980472E-3,4.942535E-2,1.644333E-2,-3.874592E-2],"categories":[],"categories_nodes":[],"categories_segments":[],"categories_sizes":[],"default_left":[0,0,0,0,0,0,0,0,0,0,0,0,0,0,0,0,0,0,0,0,0],"id":52,"left_children":[1,3,5,7,-1,9,11,13,15,-1,-1,17,19,-1,-1,-1,-1,-1,-1,-1,-1],"loss_changes":[1.1089358E0,1.3310319E0,1.5779223E0,1.5253651E0,0E0,4.5501995E-1,2.802011E0,9.8875195E-1,1.558531E0,0E0,0E0,1.3788581E0,1.6979941E0,0E0,0E0,0E0,0E0,0E0,0E0,0E0,0E0],"parents":[2147483647,0,0,1,1,2,2,3,3,5,5,6,6,7,7,8,8,11,11,12,12],"right_children":[2,4,6,8,-1,10,12,14,16,-1,-1,18,20,-1,-1,-1,-1,-1,-1,-1,-1],"split_conditions":[7.88063E-1,6.6368943E-1,-9.3400645E-1,6.723406E-1,-3.911928E-2,-5.279746E-2,1E0,1.3669084E-2,-1.6818527E-2,5.608724E-3,4.7983035E-2,1.4894622E-2,-5.8596257E-2,-1.8977044E-2,6.513353E-3,3.4576297E-2,-4.227316E-3,2.4980472E-3,4.942535E-2,1.644333E-2,-3.874592E-2],"split_indices":[0,0,7,1,0,6,8,0,4,0,0,2,3,0,0,0,0,0,0,0,0],"split_type":[0,0,0,0,0,0,0,0,0,0,0,0,0,0,0,0,0,0,0,0,0],"sum_hessian":[4.043568E1,2.6700542E1,1.3735139E1,2.500078E1,1.6997623E0,3.1604335E0,1.0574706E1,1.5961158E1,9.039623E0,1.179145E0,1.9812884E0,5.563677E0,5.0110292E0,1.0995166E1,4.9659915E0,3.68862E0,5.3510027E0,3.6929572E0,1.8707197E0,1.3244808E0,3.6865482E0],"tree_param":{"num_deleted":"0","num_feature":"9","num_nodes":"21","size_leaf_vector":"1"}},{"base_weights":[4.4895983E-3,-1.1033969E-1,2.2036631E-1,-3.8542956E-2,-3.809288E-2,7.293451E-1,1.9506473E-2,-2.1289693E-1,2.6013166E-1,5.460851E-3,4.7022045E-2,4.5489976E-1,-4.573431E-1,-1.818662E-2,6.244658E-3,3.350666E-2,-4.049747E-3,2.3994627E-3,4.837596E-2,1.598478E-2,-3.72611E-2],"categories":[],"categories_nodes":[],"categories_segments":[],"categories_sizes":[],"default_left":[0,0,0,0,0,0,0,0,0,0,0,0,0,0,0,0,0,0,0,0,0],"id":53,"left_children":[1,3,5,7,-1,9,11,13,15,-1,-1,17,19,-1,-1,-1,-1,-1,-1,-1,-1],"loss_changes":[1.0468377E0,1.2613378E0,1.4841417E0,1.4044989E0,0E0,4.365914E-1,2.6032388E0,9.0689963E-1,1.4527915E0,0E0,0E0,1.316033E0,1.5814804E0,0E0,0E0,0E0,0E0,0E0,0E0,0E0,0E0],"parents":[2147483647,0,0,1,1,2,2,3,3,5,5,6,6,7,7,8,8,11,11,12,12],"right_children":[2,4,6,8,-1,10,12,14,16,-1,-1,18,20,-1,-1,-1,-1,-1,-1,-1,-1],"split_conditions":[7.88063E-1,6.6368943E-1,-9.3400645E-1,6.723406E-1,-3.809288E-2,-5.279746E-2,1E0,1.3669084E-2,-1.6818527E-2,5.460851E-3,4.7022045E-2,1.4894622E-2,-5.8596257E-2,-1.818662E-2,6.244658E-3,3.350666E-2,-4.049747E-3,2.3994627E-3,4.837596E-2,1.598478E-2,-3.72611E-2],"split_indices":[0,0,7,1,0,6,8,0,4,0,0,2,3,0,0,0,0,0,0,0,0],"split_type":[0,0,0,0,0,0,0,0,0,0,0,0,0,0,0,0,0,0,0,0,0],"sum_hessian":[4.0249096E1,2.6592741E1,1.3656354E1,2.4907152E1,1.6855891E0,3.1197622E0,1.0536592E1,1.5907943E1,8.999209E0,1.1776389E0,1.9421234E0,5.531771E0,5.00482E0,1.0944174E1,4.9637685E0,3.648995E0,5.350215E0,3.6935196E0,1.8382515E0,1.3230746E0,3.6817455E0],"tree_param":{"num_deleted":"0","num_feature":"9","num_nodes":"21","size_leaf_vector":"1"}},{"base_weights":[5.81759E-3,5.195311E-1,-4.254605E-2,-2.6387535E-3,3.9668113E-2,-3.6138833E-2,9.634592E-3,-3.088754E-1,1.4357804E-1,-2.3912515E-2,2.2893472E-2,-1.2123645E-2,1.1947588E-2],"categories":[],"categories_nodes":[],"categories_segments":[],"categories_sizes":[],"default_left":[0,0,0,0,0,0,0,0,0,0,0,0,0],"id":54,"left_children":[1,3,5,-1,-1,-1,7,9,11,-1,-1,-1,-1],"loss_changes":[1.0422813E0,6.074267E-1,1.3718396E0,0E0,0E0,0E0,1.6100572E0,1.6711456E0,1.0343125E0,0E0,0E0,0E0,0E0],"parents":[2147483647,0,0,1,1,2,2,6,6,7,7,8,8],"right_children":[2,4,6,-1,-1,-1,8,10,12,-1,-1,-1,-1],"split_conditions":[-9.265361E-2,-6.031617E-1,-8.5300654E-2,-2.6387535E-3,3.9668113E-2,-3.6138833E-2,-6.205568E-2,1.4687958E0,-3.04757E-1,-2.3912515E-2,2.2893472E-2,-1.2123645E-2,1.1947588E-2],"split_indices":[4,5,4,0,0,0,3,5,6,0,0,0,0],"split_type":[0,0,0,0,0,0,0,0,0,0,0,0,0],"sum_hessian":[4.006159E1,2.6088178E0,3.745277E1,1.1055319E0,1.5032858E0,1.7527223E0,3.570005E1,1.0181945E1,2.5518105E1,8.647877E0,1.534068E0,4.749772E0,2.0768333E1],"tree_param":{"num_deleted":"0","num_feature":"9","num_nodes":"13","size_leaf_vector":"1"}},{"base_weights":[5.5333595E-3,5.084866E-1,-4.1521326E-2,-2.5699988E-3,3.898016E-2,-3.5238463E-2,9.128899E-3,-2.9479867E-1,1.3658866E-1,1.4848541E-3,-3.6925785E-2,3.305775E-2,3.0904352E-3],"categories":[],"categories_nodes":[],"categories_segments":[],"categories_sizes":[],"default_left":[0,0,0,0,0,0,0,0,0,0,0,0,0],"id":55,"left_children":[1,3,5,-1,-1,-1,7,9,11,-1,-1,-1,-1],"loss_changes":[9.896992E-1,5.8302426E-1,1.2947476E0,0E0,0E0,0E0,1.4587257E0,1.6252593E0,9.9789864E-1,0E0,0E0,0E0,0E0],"parents":[2147483647,0,0,1,1,2,2,6,6,7,7,8,8],"right_children":[2,4,6,-1,-1,-1,8,10,12,-1,-1,-1,-1],"split_conditions":[-9.265361E-2,-6.031617E-1,-8.5300654E-2,-2.5699988E-3,3.898016E-2,-3.5238463E-2,-6.205568E-2,3.7652287E-1,-1.7892647E0,1.4848541E-3,-3.6925785E-2,3.305775E-2,3.0904352E-3],"split_indices":[4,5,4,0,0,0,3,7,1,0,0,0,0],"split_type":[0,0,0,0,0,0,0,0,0,0,0,0,0],"sum_hessian":[3.99268E1,2.576892E0,3.7349907E1,1.1051159E0,1.4717761E0,1.7336677E0,3.5616238E1,1.0135436E1,2.5480803E1,6.3931317E0,3.7423043E0,2.2008622E0,2.327994E1],"tree_param":{"num_deleted":"0","num_feature":"9","num_nodes":"13","size_leaf_vector":"1"}},{"base_weights":[5.3039873E-3,-1.0649766E-1,2.1536224E-1,-3.640919E-2,-3.7214343E-2,7.130875E-1,1.9479629E-2,-2.0572588E-1,2.5276932E-1,5.690607E-3,4.5786228E-2,4.475072E-1,-4.468713E-1,-1.4056623E-2,1.9093264E-2,3.264313E-2,-3.9006786E-3,2.6443375E-3,4.740272E-2,1.5284664E-2,-3.6171645E-2],"categories":[],"categories_nodes":[],"categories_segments":[],"categories_sizes":[],"default_left":[0,0,0,0,0,0,0,0,0,0,0,0,0,0,0,0,0,0,0,0,0],"id":56,"left_children":[1,3,5,7,-1,9,11,13,15,-1,-1,17,19,-1,-1,-1,-1,-1,-1,-1,-1],"loss_changes":[9.811438E-1,1.1931448E0,1.4001484E0,1.3077072E0,0E0,3.8976598E-1,2.482672E0,8.484826E-1,1.3637193E0,0E0,0E0,1.2263743E0,1.4643545E0,0E0,0E0,0E0,0E0,0E0,0E0,0E0,0E0],"parents":[2147483647,0,0,1,1,2,2,3,3,5,5,6,6,7,7,8,8,11,11,12,12],"right_children":[2,4,6,8,-1,10,12,14,16,-1,-1,18,20,-1,-1,-1,-1,-1,-1,-1,-1],"split_conditions":[7.88063E-1,6.6368943E-1,-9.3400645E-1,6.723406E-1,-3.7214343E-2,-5.279746E-2,1E0,8.885032E-2,-1.6818527E-2,5.690607E-3,4.5786228E-2,1.4894622E-2,-5.8596257E-2,-1.4056623E-2,1.9093264E-2,3.264313E-2,-3.9006786E-3,2.6443375E-3,4.740272E-2,1.5284664E-2,-3.6171645E-2],"split_indices":[0,0,7,1,0,6,8,4,4,0,0,2,3,0,0,0,0,0,0,0,0],"split_type":[0,0,0,0,0,0,0,0,0,0,0,0,0,0,0,0,0,0,0,0,0],"sum_hessian":[3.98011E1,2.6297499E1,1.3503603E1,2.464615E1,1.651349E0,3.0678947E0,1.0435708E1,1.5726642E1,8.919509E0,1.1698512E0,1.8980436E0,5.462504E0,4.973204E0,1.4400191E1,1.3264502E0,3.5961516E0,5.323357E0,3.6726918E0,1.7898121E0,1.3081639E0,3.6650405E0],"tree_param":{"num_deleted":"0","num_feature":"9","num_nodes":"21","size_leaf_vector":"1"}},{"base_weights":[7.0007383E-3,5.031166E-1,-3.925146E-2,-2.2074813E-3,3.8397294E-2,-3.4203812E-2,9.659477E-3,-2.8989902E-1,1.3466753E-1,-2.2804687E-2,2.2668859E-2,-1.1546294E-2,1.1248658E-2],"categories":[],"categories_nodes":[],"categories_segments":[],"categories_sizes":[],"default_left":[0,0,0,0,0,0,0,0,0,0,0,0,0],"id":57,"left_children":[1,3,5,-1,-1,-1,7,9,11,-1,-1,-1,-1],"loss_changes":[9.5210254E-1,5.4658365E-1,1.2080657E0,0E0,0E0,0E0,1.4019189E0,1.5696877E0,9.2228216E-1,0E0,0E0,0E0,0E0],"parents":[2147483647,0,0,1,1,2,2,6,6,7,7,8,8],"right_children":[2,4,6,-1,-1,-1,8,10,12,-1,-1,-1,-1],"split_conditions":[-9.265361E-2,-6.031617E-1,-8.5300654E-2,-2.2074813E-3,3.8397294E-2,-3.4203812E-2,-6.205568E-2,1.4687958E0,-3.04757E-1,-2.2804687E-2,2.2668859E-2,-1.1546294E-2,1.1248658E-2],"split_indices":[4,5,4,0,0,0,3,5,6,0,0,0,0],"split_type":[0,0,0,0,0,0,0,0,0,0,0,0,0],"sum_hessian":[3.9631752E1,2.537375E0,3.7094376E1,1.0991943E0,1.4381808E0,1.6997185E0,3.5394657E1,1.0033118E1,2.536154E1,8.515457E0,1.5176613E0,4.715232E0,2.0646307E1],"tree_param":{"num_deleted":"0","num_feature":"9","num_nodes":"13","size_leaf_vector":"1"}},{"base_weights":[6.7066974E-3,-1.01889625E-1,2.1095611E-1,-3.3474978E-2,-3.6357444E-2,4.2874802E-2,5.9248738E-2,-1.9650355E-1,2.4502973E-1,5.994461E-1,-1.3811618E-1,-1.398719E-2,1.5906407E-2,-1.6733125E-2,2.2180341E-2,3.7385267E-3,3.9269928E-2,1.5745375E-2,-3.127187E-2],"categories":[],"categories_nodes":[],"categories_segments":[],"categories_sizes":[],"default_left":[0,0,0,0,0,0,0,0,0,0,0,0,0,0,0,0,0,0,0],"id":58,"left_children":[1,3,5,7,-1,-1,9,11,13,15,17,-1,-1,-1,-1,-1,-1,-1,-1],"loss_changes":[9.198348E-1,1.1356137E0,1.3601005E0,1.2055147E0,0E0,0E0,1.4394794E0,8.015357E-1,1.2831204E0,2.9176164E-1,2.4339154E0,0E0,0E0,0E0,0E0,0E0,0E0,0E0,0E0],"parents":[2147483647,0,0,1,1,2,2,3,3,6,6,7,7,8,8,9,9,10,10],"right_children":[2,4,6,8,-1,-1,10,12,14,16,18,-1,-1,-1,-1,-1,-1,-1,-1],"split_conditions":[7.88063E-1,6.6368943E-1,1.0181715E0,6.723406E-1,-3.6357444E-2,4.2874802E-2,-9.3400645E-1,3.670723E-1,-7.446028E-2,-2.8169794E-2,1E0,-1.398719E-2,1.5906407E-2,-1.6733125E-2,2.2180341E-2,3.7385267E-3,3.9269928E-2,1.5745375E-2,-3.127187E-2],"split_indices":[0,0,0,1,0,0,7,6,3,2,8,0,0,0,0,0,0,0,0],"split_type":[0,0,0,0,0,0,0,0,0,0,0,0,0,0,0,0,0,0,0],"sum_hessian":[3.950094E1,2.6116396E1,1.33845415E1,2.4490257E1,1.6261384E0,1.6595671E0,1.1724975E1,1.563337E1,8.856888E0,2.5923471E0,9.1326275E0,1.38496475E1,1.7837224E0,2.0849974E0,6.77189E0,1.0452391E0,1.5471079E0,4.916214E0,4.2164135E0],"tree_param":{"num_deleted":"0","num_feature":"9","num_nodes":"19","size_leaf_vector":"1"}},{"base_weights":[7.4341926E-3,4.9665955E-1,-3.7981104E-2,-2.0100246E-3,3.7845913E-2,-3.3171285E-2,9.155484E-3,-2.728153E-1,1.2657282E-1,2.0940872E-3,-3.5581212E-2,3.1823E-2,2.6976315E-3],"categories":[],"categories_nodes":[],"categories_segments":[],"categories_sizes":[],"default_left":[0,0,0,0,0,0,0,0,0,0,0,0,0],"id":59,"left_children":[1,3,5,-1,-1,-1,7,9,11,-1,-1,-1,-1],"loss_changes":[9.1557705E-1,5.1936936E-1,1.1222317E0,0E0,0E0,0E0,1.2328141E0,1.5429277E0,9.371124E-1,0E0,0E0,0E0,0E0],"parents":[2147483647,0,0,1,1,2,2,6,6,7,7,8,8],"right_children":[2,4,6,-1,-1,-1,8,10,12,-1,-1,-1,-1],"split_conditions":[-9.265361E-2,-6.031617E-1,-8.5300654E-2,-2.0100246E-3,3.7845913E-2,-3.3171285E-2,-6.205568E-2,3.7652287E-1,-1.7892647E0,2.0940872E-3,-3.5581212E-2,3.1823E-2,2.6976315E-3],"split_indices":[4,5,4,0,0,0,3,7,1,0,0,0,0],"split_type":[0,0,0,0,0,0,0,0,0,0,0,0,0],"sum_hessian":[3.9359196E1,2.4993713E0,3.6859825E1,1.09211E0,1.4072611E0,1.6669472E0,3.519288E1,9.957372E0,2.5235506E1,6.325512E0,3.63186E0,2.1781137E0,2.3057392E1],"tree_param":{"num_deleted":"0","num_feature":"9","num_nodes":"13","size_leaf_vector":"1"}},{"base_weights":[7.16201E-3,1.6431369E-1,-1.2915027E-1,4.0298605E-1,-2.4208538E-1,-3.016227E-1,3.1672332E-1,-2.9485086E-2,5.8166677E-1,-5.436962E-1,4.333305E-2,-5.30462E-1,3.5602316E-1,6.455042E-1,-3.775985E-2,3.700216E-2,-1.352369E-2,-8.962004E-3,-5.071455E-2,-3.4808543E-2,1.2653899E-2,3.479594E-2,-1.6885487E-2,4.4827696E-2,-8.6951535E-3],"categories":[],"categories_nodes":[],"categories_segments":[],"categories_sizes":[],"default_left":[0,0,0,0,0,0,0,0,0,0,0,0,0,0,0,0,0,0,0,0,0,0,0,0,0],"id":60,"left_children":[1,3,5,7,9,11,13,-1,15,17,-1,19,21,23,-1,-1,-1,-1,-1,-1,-1,-1,-1,-1,-1],"loss_changes":[8.8317907E-1,1.9531162E0,1.7956083E0,2.547317E0,3.0470853E0,2.664998E0,2.8325667E0,0E0,1.6894605E0,9.621781E-1,0E0,1.8131511E0,1.3776135E0,1.3143532E0,0E0,0E0,0E0,0E0,0E0,0E0,0E0,0E0,0E0,0E0,0E0],"parents":[2147483647,0,0,1,1,2,2,3,3,4,4,5,5,6,6,8,8,9,9,11,11,12,12,13,13],"right_children":[2,4,6,8,10,12,14,-1,16,18,-1,20,22,24,-1,-1,-1,-1,-1,-1,-1,-1,-1,-1,-1],"split_conditions":[-2.18188E-2,4.082123E-2,1.958128E-1,-1.3957684E0,1.3156581E-1,4.757938E-2,4.553347E-1,-2.9485086E-2,1.7762374E0,3.852519E-2,4.333305E-2,9.276445E-2,9.0908796E-1,1.311476E0,-3.775985E-2,3.700216E-2,-1.352369E-2,-8.962004E-3,-5.071455E-2,-3.4808543E-2,1.2653899E-2,3.479594E-2,-1.6885487E-2,4.4827696E-2,-8.6951535E-3],"split_indices":[4,3,6,5,3,2,6,0,5,2,0,4,7,1,0,0,0,0,0,0,0,0,0,0,0],"split_type":[0,0,0,0,0,0,0,0,0,0,0,0,0,0,0,0,0,0,0,0,0,0,0,0,0],"sum_hessian":[3.9237602E1,1.813022E1,2.1107384E1,1.14274435E1,6.7027764E0,1.5453283E1,5.6541E0,1.3922541E0,1.0035189E1,5.6700025E0,1.0327737E0,1.1607607E1,3.8456767E0,4.6313667E0,1.0227333E0,8.573323E0,1.4618661E0,3.97354E0,1.6964624E0,9.673326E0,1.934281E0,2.5789597E0,1.2667168E0,3.473123E0,1.1582437E0],"tree_param":{"num_deleted":"0","num_feature":"9","num_nodes":"25","size_leaf_vector":"1"}},{"base_weights":[6.156103E-3,-1.6657756E-1,1.2852757E-1,2.2724885E-2,-5.859808E-1,3.9106157E-2,6.409964E-2,-3.174338E-2,1.935825E-1,1.1522183E-2,-4.2163804E-2,-1.09940626E-1,3.20134E-1,2.372831E-2,-1.1771849E-2,-1.4876368E-2,3.872922E-2,4.1214027E-2,-4.1524842E-3],"categories":[],"categories_nodes":[],"categories_segments":[],"categories_sizes":[],"default_left":[0,0,0,0,0,0,0,0,0,0,0,0,0,0,0,0,0,0,0],"id":61,"left_children":[1,3,5,7,9,-1,11,-1,13,-1,-1,15,17,-1,-1,-1,-1,-1,-1],"loss_changes":[8.657544E-1,1.3629804E0,9.5820475E-1,1.5470517E0,1.3127109E0,0E0,1.0550077E0,0E0,1.4169784E0,0E0,0E0,2.614648E0,2.0029287E0,0E0,0E0,0E0,0E0,0E0,0E0],"parents":[2147483647,0,0,1,1,2,2,3,3,4,4,6,6,8,8,11,11,12,12],"right_children":[2,4,6,8,10,-1,12,-1,14,-1,-1,16,18,-1,-1,-1,-1,-1,-1],"split_conditions":[8.3072565E-2,3.379765E-2,1.2106053E-1,-9.4029896E-2,-4.0232822E-2,3.9106157E-2,1.4894622E-2,-3.174338E-2,4.5636974E-2,1.1522183E-2,-4.2163804E-2,3.670723E-1,1E0,2.372831E-2,-1.1771849E-2,-1.4876368E-2,3.872922E-2,4.1214027E-2,-4.1524842E-3],"split_indices":[0,4,0,3,2,0,2,0,3,0,0,6,8,0,0,0,0,0,0],"split_type":[0,0,0,0,0,0,0,0,0,0,0,0,0,0,0,0,0,0,0],"sum_hessian":[3.894502E1,1.5999562E1,2.2945457E1,1.1675505E1,4.324057E0,1.0593429E0,2.1886114E1,1.847835E0,9.82767E0,1.0611813E0,3.2628758E0,1.3369055E1,8.517059E0,5.874221E0,3.9534492E0,1.15773945E1,1.7916601E0,3.320558E0,5.196501E0],"tree_param":{"num_deleted":"0","num_feature":"9","num_nodes":"19","size_leaf_vector":"1"}},{"base_weights":[7.118653E-3,-9.86403E-2,2.0507717E-1,-3.219019E-2,-3.5100065E-2,6.890035E-1,1.5998261E-2,-1.8945888E-1,2.3719151E-1,5.294545E-3,4.4281803E-2,4.1720104E-1,-4.1711852E-1,-1.3147287E-2,1.8471308E-2,3.114762E-2,-3.9339135E-3,2.6253902E-3,4.4673186E-2,1.4726884E-2,-3.3774175E-2],"categories":[],"categories_nodes":[],"categories_segments":[],"categories_sizes":[],"default_left":[0,0,0,0,0,0,0,0,0,0,0,0,0,0,0,0,0,0,0,0,0],"id":62,"left_children":[1,3,5,7,-1,9,11,13,15,-1,-1,17,19,-1,-1,-1,-1,-1,-1,-1,-1],"loss_changes":[8.525286E-1,1.0433552E0,1.2853487E0,1.1039519E0,0E0,3.5988724E-1,2.1221797E0,7.6818776E-1,1.225884E0,0E0,0E0,1.0508078E0,1.2821643E0,0E0,0E0,0E0,0E0,0E0,0E0,0E0,0E0],"parents":[2147483647,0,0,1,1,2,2,3,3,5,5,6,6,7,7,8,8,11,11,12,12],"right_children":[2,4,6,8,-1,10,12,14,16,-1,-1,18,20,-1,-1,-1,-1,-1,-1,-1,-1],"split_conditions":[7.88063E-1,6.6368943E-1,-9.3400645E-1,6.723406E-1,-3.5100065E-2,-5.279746E-2,1E0,8.885032E-2,-1.6818527E-2,5.294545E-3,4.4281803E-2,1.4894622E-2,-5.8596257E-2,-1.3147287E-2,1.8471308E-2,3.114762E-2,-3.9339135E-3,2.6253902E-3,4.4673186E-2,1.4726884E-2,-3.3774175E-2],"split_indices":[0,0,7,1,0,6,8,4,4,0,0,2,3,0,0,0,0,0,0,0,0],"split_type":[0,0,0,0,0,0,0,0,0,0,0,0,0,0,0,0,0,0,0,0,0],"sum_hessian":[3.8754692E1,2.5586739E1,1.3167953E1,2.39972E1,1.5895386E0,2.9566746E0,1.0211278E1,1.5338858E1,8.658343E0,1.1335778E0,1.8230969E0,5.320014E0,4.891264E0,1.4024338E1,1.3145199E0,3.4602623E0,5.1980805E0,3.6416826E0,1.6783311E0,1.2654967E0,3.6257675E0],"tree_param":{"num_deleted":"0","num_feature":"9","num_nodes":"21","size_leaf_vector":"1"}},{"base_weights":[8.731015E-3,4.868665E-1,-3.552792E-2,-1.5059904E-3,3.685837E-2,-3.2387316E-2,